FANN_FLO_2.1
num_layers=3
learning_rate=0.700000
connection_rate=1.000000
network_type=0
learning_momentum=0.000000
training_algorithm=2
train_error_function=0
train_stop_function=0
cascade_output_change_fraction=0.010000
quickprop_decay=-0.000100
quickprop_mu=1.750000
rprop_increase_factor=1.200000
rprop_decrease_factor=0.500000
rprop_delta_min=0.000000
rprop_delta_max=50.000000
rprop_delta_zero=0.100000
cascade_output_stagnation_epochs=12
cascade_candidate_change_fraction=0.010000
cascade_candidate_stagnation_epochs=12
cascade_max_out_epochs=150
cascade_max_cand_epochs=150
cascade_num_candidate_groups=2
bit_fail_limit=3.49999994039535522461e-01
cascade_candidate_limit=1.00000000000000000000e+03
cascade_weight_multiplier=4.00000005960464477539e-01
cascade_activation_functions_count=10
cascade_activation_functions=3 5 7 8 10 11 14 15 16 17 
cascade_activation_steepnesses_count=4
cascade_activation_steepnesses=2.50000000000000000000e-01 5.00000000000000000000e-01 7.50000000000000000000e-01 1.00000000000000000000e+00 
layer_sizes=7 25 5 
scale_included=0
neurons (num_inputs, activation_function, activation_steepness)=(0, 0, 0.00000000000000000000e+00) (0, 0, 0.00000000000000000000e+00) (0, 0, 0.00000000000000000000e+00) (0, 0, 0.00000000000000000000e+00) (0, 0, 0.00000000000000000000e+00) (0, 0, 0.00000000000000000000e+00) (0, 0, 0.00000000000000000000e+00) (7, 5, 8.99999976158142089844e-01) (7, 5, 8.99999976158142089844e-01) (7, 5, 8.99999976158142089844e-01) (7, 5, 8.99999976158142089844e-01) (7, 5, 8.99999976158142089844e-01) (7, 5, 8.99999976158142089844e-01) (7, 5, 8.99999976158142089844e-01) (7, 5, 8.99999976158142089844e-01) (7, 5, 8.99999976158142089844e-01) (7, 5, 8.99999976158142089844e-01) (7, 5, 8.99999976158142089844e-01) (7, 5, 8.99999976158142089844e-01) (7, 5, 8.99999976158142089844e-01) (7, 5, 8.99999976158142089844e-01) (7, 5, 8.99999976158142089844e-01) (7, 5, 8.99999976158142089844e-01) (7, 5, 8.99999976158142089844e-01) (7, 5, 8.99999976158142089844e-01) (7, 5, 8.99999976158142089844e-01) (7, 5, 8.99999976158142089844e-01) (7, 5, 8.99999976158142089844e-01) (7, 5, 8.99999976158142089844e-01) (7, 5, 8.99999976158142089844e-01) (7, 5, 8.99999976158142089844e-01) (0, 5, 8.99999976158142089844e-01) (25, 5, 3.00000011920928955078e-01) (25, 5, 3.00000011920928955078e-01) (25, 5, 3.00000011920928955078e-01) (25, 5, 3.00000011920928955078e-01) (0, 5, 3.00000011920928955078e-01) 
connections (connected_to_neuron, weight)=(0, 6.72860741615295410156e-02) (1, -1.91172555088996887207e-01) (2, 1.23880036175251007080e-01) (3, -1.63408607244491577148e-01) (4, -6.62961453199386596680e-02) (5, -5.55240750312805175781e-01) (6, 1.35336026549339294434e-01) (0, 1.45724725723266601562e+00) (1, 1.06165599822998046875e+00) (2, -8.12109261751174926758e-02) (3, 9.65288639068603515625e-01) (4, -8.67597937583923339844e-01) (5, 1.27838051319122314453e+00) (6, -3.26799243688583374023e-01) (0, 2.16366022825241088867e-01) (1, -8.62079906463623046875e+00) (2, 2.30202555656433105469e+00) (3, 1.01450312137603759766e+00) (4, 1.09562647342681884766e+00) (5, 2.07668991088867187500e+01) (6, -8.02946031093597412109e-01) (0, -6.39775335788726806641e-01) (1, -1.34302139282226562500e-01) (2, 1.09223914146423339844e+00) (3, -5.59663653373718261719e-01) (4, 3.16879183053970336914e-01) (5, 2.64992386102676391602e-01) (6, -5.67847430706024169922e-01) (0, -1.67090368270874023438e+00) (1, 3.68682527542114257812e+00) (2, -3.88183563947677612305e-01) (3, 6.72130680084228515625e+00) (4, -2.49811935424804687500e+00) (5, -9.80344340205192565918e-02) (6, -4.20465421676635742188e+00) (0, 6.38335168361663818359e-01) (1, 4.07943040132522583008e-01) (2, 2.26808145642280578613e-01) (3, -1.36140376329421997070e-01) (4, -2.77398586273193359375e-01) (5, 6.76329076290130615234e-01) (6, 1.88769713044166564941e-01) (0, 3.19837856292724609375e+00) (1, -2.30360817909240722656e+00) (2, -1.13941609859466552734e+00) (3, 3.18915247917175292969e-01) (4, 1.88639235496520996094e+00) (5, -6.37255728244781494141e-01) (6, 1.90242305397987365723e-01) (0, -4.04351875185966491699e-02) (1, -1.49870891571044921875e+01) (2, 1.63316059112548828125e+00) (3, 2.38338589668273925781e+00) (4, 2.88663315773010253906e+00) (5, 1.92158794403076171875e+01) (6, -1.06580825522541999817e-02) (0, 1.11830520629882812500e+00) (1, -8.84980186820030212402e-02) (2, -3.64092886447906494141e-02) (3, 5.21416008472442626953e-01) (4, -7.20345437526702880859e-01) (5, 3.91569674015045166016e-01) (6, 7.43607506155967712402e-02) (0, -7.77004301548004150391e-01) (1, 1.16032119840383529663e-02) (2, 2.66447454690933227539e-01) (3, -7.08101168274879455566e-02) (4, 1.60605157725512981415e-03) (5, -6.42839521169662475586e-02) (6, 2.44941845536231994629e-01) (0, 5.20181238651275634766e-01) (1, -1.48281005859375000000e+02) (2, 2.41440311074256896973e-02) (3, -7.08266019821166992188e-01) (4, -6.47916615009307861328e-01) (5, -5.87178182601928710938e+00) (6, 1.26369684934616088867e-01) (0, 6.78180992603302001953e-01) (1, -1.52801141142845153809e-01) (2, 1.46964156627655029297e+00) (3, 1.21271574497222900391e+00) (4, 9.67196077108383178711e-02) (5, 9.09387111663818359375e-01) (6, 8.24871420860290527344e-01) (0, -8.45678627490997314453e-01) (1, -2.63788055419921875000e+02) (2, -1.43308557128906250000e+03) (3, 3.26084350585937500000e+02) (4, -1.48555590820312500000e+03) (5, 2.00074539184570312500e+01) (6, 1.04388024902343750000e+03) (0, 5.91257452964782714844e-01) (1, 3.83816719055175781250e-01) (2, 5.25757837295532226562e+00) (3, 6.23497068881988525391e-01) (4, -1.50705218315124511719e-01) (5, 3.19689124822616577148e-01) (6, 2.07230305671691894531e+00) (0, 3.07804048061370849609e-01) (1, -3.51631015539169311523e-01) (2, -9.42071020603179931641e-01) (3, 1.24795556068420410156e+00) (4, 4.34653013944625854492e-01) (5, -1.13035961985588073730e-01) (6, 1.09609389305114746094e+00) (0, 1.00587010383605957031e-01) (1, 4.71324920654296875000e-01) (2, -2.31052964925765991211e-01) (3, 5.98232448101043701172e-01) (4, 2.35528901219367980957e-01) (5, 1.89983773231506347656e+00) (6, 4.19958025217056274414e-01) (0, 5.71527786254882812500e+01) (1, -8.97840499877929687500e+00) (2, -1.22012841701507568359e+00) (3, 1.38446509838104248047e+00) (4, 6.49131441116333007812e+00) (5, 6.09370040893554687500e+00) (6, 7.66905260086059570312e+00) (0, 1.15438342094421386719e+00) (1, 2.79468250274658203125e+00) (2, -3.40469330549240112305e-01) (3, -2.56145048141479492188e+00) (4, -3.74750685691833496094e+00) (5, -1.64702033996582031250e+00) (6, -5.44945538043975830078e-01) (0, -1.86694741249084472656e+00) (1, -3.12105268239974975586e-01) (2, 3.78890424966812133789e-01) (3, 2.41832852363586425781e-01) (4, -1.66770577430725097656e+00) (5, -1.05668079853057861328e+00) (6, -6.08131885528564453125e-01) (0, 1.59151191711425781250e+01) (1, 1.62408809661865234375e+01) (2, 8.04927444458007812500e+00) (3, 9.15802764892578125000e+00) (4, -5.55155229568481445312e+00) (5, 2.33381652832031250000e+01) (6, 1.06142544746398925781e+00) (0, 5.93263328075408935547e-01) (1, 1.43977737426757812500e+00) (2, -1.09273195266723632812e+00) (3, 1.00296735763549804688e+00) (4, 1.22986704111099243164e-01) (5, 6.10780119895935058594e-01) (6, 4.55529481172561645508e-01) (0, 1.71525403857231140137e-01) (1, 7.39961981773376464844e-01) (2, 6.58348262310028076172e-01) (3, -7.57498443126678466797e-01) (4, -1.89545318484306335449e-01) (5, 5.38458108901977539062e-01) (6, -1.26272284984588623047e+00) (0, -4.17994797229766845703e-01) (1, -8.20880532264709472656e-02) (2, 2.90222138166427612305e-01) (3, -4.09503549337387084961e-01) (4, 4.35770511627197265625e-01) (5, 5.98852038383483886719e-01) (6, -3.88543397188186645508e-01) (0, 8.27540218830108642578e-01) (1, 3.74936938285827636719e+00) (2, 2.66271829605102539062e+00) (3, -2.30416357517242431641e-01) (4, 3.94636213779449462891e-01) (5, -3.26466917991638183594e+00) (6, -3.93406391143798828125e-01) (7, 2.86843466758728027344e+00) (8, -1.50499343872070312500e+00) (9, -3.06198120117187500000e-01) (10, -1.62697076797485351562e+00) (11, 1.16029615402221679688e+01) (12, 3.64574480056762695312e+00) (13, -2.72526001930236816406e+00) (14, -8.69194209575653076172e-01) (15, 3.29405617713928222656e+00) (16, 2.28877234458923339844e+00) (17, -3.23579579591751098633e-01) (18, -8.47158674150705337524e-03) (19, 5.08921813964843750000e+00) (20, -1.91476135253906250000e+01) (21, 1.69201457500457763672e+00) (22, -1.27526605129241943359e+00) (23, 1.54877603054046630859e+00) (24, -4.27039653062820434570e-01) (25, -3.86447572708129882812e+00) (26, 1.15452921390533447266e+00) (27, 4.11369657516479492188e+00) (28, -1.79915404319763183594e+00) (29, -1.19151711463928222656e+00) (30, -2.41991519927978515625e+00) (31, 9.93260574340820312500e+00) (7, 3.83465141057968139648e-01) (8, -9.42288112640380859375e+00) (9, 1.04620494842529296875e+01) (10, 9.48694527149200439453e-01) (11, -3.91401910781860351562e+00) (12, -1.34632415771484375000e+01) (13, 1.54515814781188964844e+00) (14, -7.50901222229003906250e+00) (15, -3.51761245727539062500e+00) (16, 1.42697620391845703125e+00) (17, 1.68059158325195312500e+00) (18, 1.08382952213287353516e+00) (19, -1.49110823869705200195e-01) (20, 6.17029037475585937500e+01) (21, -5.10757923126220703125e+00) (22, -3.60986328125000000000e+00) (23, -3.98072749376296997070e-01) (24, 3.05517268180847167969e+00) (25, 2.27083504199981689453e-01) (26, -7.53999471664428710938e+00) (27, -3.30299110412597656250e+01) (28, 1.08377659320831298828e+00) (29, 1.01148700714111328125e+00) (30, 4.30677747726440429688e+00) (31, -2.97201871871948242188e-01) (7, -4.45098924636840820312e+00) (8, -1.00562369823455810547e+00) (9, 7.06849247217178344727e-02) (10, 7.37032115459442138672e-01) (11, 5.96682056784629821777e-02) (12, 2.99896335601806640625e+00) (13, 3.72103959321975708008e-01) (14, -1.24527618288993835449e-01) (15, 2.61237323284149169922e-01) (16, 3.91593068838119506836e-01) (17, 3.78288626670837402344e-02) (18, -7.37238526344299316406e-02) (19, -1.35301783680915832520e-01) (20, -1.83956503868103027344e-01) (21, -1.06224797666072845459e-01) (22, 1.60018146038055419922e+00) (23, 5.71603477001190185547e-02) (24, 2.09164142608642578125e-01) (25, 5.16133964061737060547e-01) (26, -3.11158802360296249390e-02) (27, 2.87041842937469482422e-01) (28, 6.85479938983917236328e-01) (29, 6.56130135059356689453e-01) (30, -4.62578296661376953125e-01) (31, 3.80397178232669830322e-02) (7, 3.32202315330505371094e-01) (8, -7.36430108547210693359e-01) (9, -2.25266572088003158569e-02) (10, -5.12514770030975341797e-01) (11, -5.21852001547813415527e-02) (12, 1.67143690586090087891e+00) (13, -6.55378103256225585938e-02) (14, 2.64313761144876480103e-02) (15, 1.46983075141906738281e+00) (16, -2.59073114395141601562e+00) (17, -1.92929357290267944336e-02) (18, 2.16609358787536621094e-01) (19, 6.17688149213790893555e-03) (20, -1.98776394128799438477e-01) (21, -4.17928606271743774414e-01) (22, -2.15013206005096435547e-01) (23, 1.43028661608695983887e-01) (24, 7.54427015781402587891e-02) (25, 9.79635834693908691406e-01) (26, 1.25692665576934814453e-01) (27, 1.02841332554817199707e-01) (28, 6.85912370681762695312e-01) (29, -2.58567114360630512238e-03) (30, -5.23538142442703247070e-03) (31, 1.42878487706184387207e-01) 
