FANN_FLO_2.1
num_layers=3
learning_rate=0.700000
connection_rate=1.000000
network_type=0
learning_momentum=0.000000
training_algorithm=2
train_error_function=0
train_stop_function=0
cascade_output_change_fraction=0.010000
quickprop_decay=-0.000100
quickprop_mu=1.750000
rprop_increase_factor=1.200000
rprop_decrease_factor=0.500000
rprop_delta_min=0.000000
rprop_delta_max=50.000000
rprop_delta_zero=0.100000
cascade_output_stagnation_epochs=12
cascade_candidate_change_fraction=0.010000
cascade_candidate_stagnation_epochs=12
cascade_max_out_epochs=150
cascade_max_cand_epochs=150
cascade_num_candidate_groups=2
bit_fail_limit=3.49999994039535522461e-01
cascade_candidate_limit=1.00000000000000000000e+03
cascade_weight_multiplier=4.00000005960464477539e-01
cascade_activation_functions_count=10
cascade_activation_functions=3 5 7 8 10 11 14 15 16 17 
cascade_activation_steepnesses_count=4
cascade_activation_steepnesses=2.50000000000000000000e-01 5.00000000000000000000e-01 7.50000000000000000000e-01 1.00000000000000000000e+00 
layer_sizes=7 25 5 
scale_included=0
neurons (num_inputs, activation_function, activation_steepness)=(0, 0, 0.00000000000000000000e+00) (0, 0, 0.00000000000000000000e+00) (0, 0, 0.00000000000000000000e+00) (0, 0, 0.00000000000000000000e+00) (0, 0, 0.00000000000000000000e+00) (0, 0, 0.00000000000000000000e+00) (0, 0, 0.00000000000000000000e+00) (7, 5, 8.99999976158142089844e-01) (7, 5, 8.99999976158142089844e-01) (7, 5, 8.99999976158142089844e-01) (7, 5, 8.99999976158142089844e-01) (7, 5, 8.99999976158142089844e-01) (7, 5, 8.99999976158142089844e-01) (7, 5, 8.99999976158142089844e-01) (7, 5, 8.99999976158142089844e-01) (7, 5, 8.99999976158142089844e-01) (7, 5, 8.99999976158142089844e-01) (7, 5, 8.99999976158142089844e-01) (7, 5, 8.99999976158142089844e-01) (7, 5, 8.99999976158142089844e-01) (7, 5, 8.99999976158142089844e-01) (7, 5, 8.99999976158142089844e-01) (7, 5, 8.99999976158142089844e-01) (7, 5, 8.99999976158142089844e-01) (7, 5, 8.99999976158142089844e-01) (7, 5, 8.99999976158142089844e-01) (7, 5, 8.99999976158142089844e-01) (7, 5, 8.99999976158142089844e-01) (7, 5, 8.99999976158142089844e-01) (7, 5, 8.99999976158142089844e-01) (7, 5, 8.99999976158142089844e-01) (0, 5, 8.99999976158142089844e-01) (25, 5, 3.00000011920928955078e-01) (25, 5, 3.00000011920928955078e-01) (25, 5, 3.00000011920928955078e-01) (25, 5, 3.00000011920928955078e-01) (0, 5, 3.00000011920928955078e-01) 
connections (connected_to_neuron, weight)=(0, 3.84744310379028320312e+00) (1, 1.53016746044158935547e-01) (2, -1.28446853160858154297e+00) (3, -1.15961795672774314880e-02) (4, 5.64409375190734863281e-01) (5, 3.96694809198379516602e-01) (6, 1.80599486827850341797e+00) (0, 8.83700466156005859375e+00) (1, -8.86980628967285156250e+00) (2, -3.94151270389556884766e-01) (3, 5.33920764923095703125e+00) (4, 1.13211321830749511719e+00) (5, -3.88653206825256347656e+00) (6, 4.47110986709594726562e+00) (0, 1.44302546977996826172e+00) (1, 3.54213356971740722656e-01) (2, 2.85663008689880371094e+00) (3, 6.39659166336059570312e-01) (4, 7.80724287033081054688e-01) (5, 1.06228744983673095703e+00) (6, 1.70127952098846435547e+00) (0, 1.53783097863197326660e-01) (1, -1.40506863594055175781e+00) (2, -7.80216932296752929688e+00) (3, -7.88064956665039062500e-01) (4, -2.81941235065460205078e-01) (5, -1.03631758689880371094e+00) (6, -2.07036805152893066406e+00) (0, 1.03531502187252044678e-01) (1, 2.12215051054954528809e-01) (2, 9.04522240161895751953e-02) (3, -2.13218368589878082275e-02) (4, 2.40646023303270339966e-02) (5, 5.68395793437957763672e-01) (6, 6.77691325545310974121e-02) (0, 5.72625303268432617188e+00) (1, -8.15799891948699951172e-01) (2, -1.24517135620117187500e+01) (3, -6.17723894119262695312e+00) (4, -3.42748856544494628906e+00) (5, 1.16416244506835937500e+01) (6, 2.63870453834533691406e+00) (0, 1.09583616256713867188e-01) (1, 3.66087764501571655273e-01) (2, 2.42920696735382080078e-01) (3, 2.49375671148300170898e-01) (4, -1.67976215481758117676e-01) (5, 4.55015510320663452148e-01) (6, 1.59029141068458557129e-01) (0, 3.73469018936157226562e+00) (1, 1.01708209514617919922e+00) (2, -2.59189337491989135742e-01) (3, 8.36127817630767822266e-01) (4, -3.34431672096252441406e+00) (5, 7.36267387866973876953e-01) (6, -1.15591895580291748047e+00) (0, 1.22763121128082275391e+00) (1, 3.47145080566406250000e-01) (2, 8.58753845095634460449e-02) (3, 4.67132776975631713867e-01) (4, -1.21594227850437164307e-01) (5, 4.12917464971542358398e-01) (6, 1.14469304680824279785e-01) (0, -6.63128232955932617188e+00) (1, 2.42201495170593261719e+00) (2, -2.83207583427429199219e+00) (3, -7.66426849365234375000e+00) (4, 6.44687795639038085938e+00) (5, 1.88478910923004150391e+00) (6, 5.36567258834838867188e+00) (0, 5.82359611988067626953e-01) (1, 4.41795635223388671875e+00) (2, -1.10450088977813720703e+00) (3, 5.21978974342346191406e-01) (4, -1.52284801006317138672e-01) (5, 1.84061431884765625000e+00) (6, 7.97267317771911621094e-01) (0, -8.66815948486328125000e+00) (1, 2.51989412307739257812e+00) (2, 7.37478658556938171387e-02) (3, -2.33618235588073730469e+00) (4, 2.88752341270446777344e+00) (5, -1.89953899383544921875e+01) (6, -1.99967110157012939453e+00) (0, -6.53114795684814453125e-01) (1, -8.20819437503814697266e-01) (2, 6.02833256125450134277e-02) (3, 8.88822078704833984375e-01) (4, -1.56493544578552246094e+00) (5, -5.45301556587219238281e-01) (6, 9.82479214668273925781e-01) (0, 1.18377339839935302734e+00) (1, 4.77448791265487670898e-01) (2, 1.03658586740493774414e-01) (3, 2.04178977012634277344e+00) (4, -5.89487493038177490234e-01) (5, 3.65749597549438476562e-01) (6, 3.73065114021301269531e-01) (0, 8.38717520236968994141e-01) (1, 1.43135592341423034668e-01) (2, 1.08058118820190429688e+01) (3, 5.07780492305755615234e-01) (4, -3.66302788257598876953e-01) (5, -1.16866886615753173828e+00) (6, 3.84646868705749511719e+00) (0, 4.78509235382080078125e+00) (1, -4.13115650415420532227e-01) (2, 9.07529413700103759766e-01) (3, -2.88212299346923828125e-01) (4, 1.39990150928497314453e+00) (5, 9.13029983639717102051e-02) (6, -3.12952160835266113281e+00) (0, 1.04213845729827880859e+00) (1, 9.98523831367492675781e-01) (2, 3.14174108207225799561e-02) (3, -2.59012269973754882812e+00) (4, 1.58435237407684326172e+00) (5, 3.09687805175781250000e+00) (6, -4.15757894515991210938e+00) (0, 1.89394503831863403320e-01) (1, -1.08012831211090087891e+00) (2, 5.79128503799438476562e-01) (3, -6.49988591670989990234e-01) (4, -6.20710372924804687500e-01) (5, 4.40034627914428710938e-01) (6, -1.73079624772071838379e-01) (0, -3.43267947435379028320e-01) (1, 6.64937794208526611328e-02) (2, 3.87183167040348052979e-02) (3, 5.07671236991882324219e-02) (4, 8.93540680408477783203e-01) (5, 1.14897228777408599854e-01) (6, 3.25638443231582641602e-01) (0, 2.93023854494094848633e-01) (1, 7.41091787815093994141e-01) (2, 6.54210627079010009766e-01) (3, -4.16414618492126464844e-01) (4, -5.19068241119384765625e-02) (5, 6.19404673576354980469e-01) (6, 2.01129470951855182648e-03) (0, -1.81905061006546020508e-01) (1, -5.12216663360595703125e+00) (2, -1.37131309509277343750e+00) (3, 1.86086282134056091309e-01) (4, -7.90519714355468750000e-02) (5, 2.17253065109252929688e+00) (6, 6.76416218280792236328e-01) (0, 1.30720913410186767578e-01) (1, 7.20583558082580566406e-01) (2, 1.43070709705352783203e+00) (3, -3.84847134351730346680e-01) (4, 8.54273736476898193359e-02) (5, 3.72691535949707031250e+00) (6, -1.95482805371284484863e-01) (0, -1.64412140846252441406e-01) (1, 5.72757840156555175781e-01) (2, -4.03655141592025756836e-01) (3, 2.62789487838745117188e-01) (4, -2.22132802009582519531e-02) (5, 9.10901844501495361328e-01) (6, 9.38193202018737792969e-02) (0, -1.98156337738037109375e+01) (1, 4.49461507797241210938e+00) (2, 3.08788943290710449219e+00) (3, 7.24262428283691406250e+00) (4, 7.77574491500854492188e+00) (5, -2.99771833419799804688e+00) (6, -1.96401965618133544922e+00) (7, 4.13009786605834960938e+00) (8, -4.87987488508224487305e-01) (9, 3.01459503173828125000e+00) (10, 6.33044862747192382812e+00) (11, -4.62790679931640625000e+00) (12, 2.82985091209411621094e-01) (13, 3.19990545511245727539e-01) (14, -5.06769120693206787109e-01) (15, 2.13592004776000976562e+00) (16, -9.80379867553710937500e+00) (17, 5.04042863845825195312e+00) (18, 4.49893116950988769531e-01) (19, 4.10419750213623046875e+00) (20, -1.75130438804626464844e+00) (21, -7.34500789642333984375e+00) (22, -6.42888545989990234375e-01) (23, -5.08493757247924804688e+00) (24, 2.28859663009643554688e+00) (25, 2.91928172111511230469e+00) (26, -2.47429132461547851562e+00) (27, -1.54119178652763366699e-01) (28, -4.04745757579803466797e-01) (29, 7.69767808914184570312e+00) (30, 1.60207176208496093750e+00) (31, 2.90051889419555664062e+00) (7, 1.59297268837690353394e-02) (8, -3.98746943473815917969e+00) (9, 7.39808845520019531250e+00) (10, 2.64483153820037841797e-01) (11, 1.06419587135314941406e+00) (12, 3.70630478858947753906e+00) (13, 2.06563854217529296875e+00) (14, -2.98296546936035156250e+00) (15, -1.73352470397949218750e+01) (16, 9.92728292942047119141e-01) (17, -3.10303840637207031250e+01) (18, 3.66730451583862304688e+00) (19, -9.02552247047424316406e-01) (20, 2.95064997673034667969e+00) (21, 3.69878387451171875000e+01) (22, 7.75141954421997070312e-01) (23, 1.17935538291931152344e+00) (24, 8.83638095855712890625e+00) (25, -2.60762691497802734375e-01) (26, 4.84992122650146484375e+00) (27, -9.12536430358886718750e+00) (28, 9.06282424926757812500e-01) (29, 1.62121200561523437500e+00) (30, -3.46894168853759765625e+00) (31, -1.87175601720809936523e-01) (7, -2.12553292512893676758e-01) (8, 8.69807973504066467285e-02) (9, 3.05698752403259277344e-01) (10, 2.11244642734527587891e-01) (11, 7.00171518325805664062e+00) (12, 1.84124875813722610474e-02) (13, 1.58851325511932373047e+00) (14, -1.01803027093410491943e-01) (15, -3.31708103418350219727e-01) (16, 6.87017962336540222168e-02) (17, -4.17854577302932739258e-01) (18, 3.22669036686420440674e-02) (19, -3.19751709699630737305e-01) (20, -2.33080089092254638672e-01) (21, 7.57902637124061584473e-02) (22, -2.84916669130325317383e-01) (23, 1.18222641944885253906e+00) (24, 4.16217029094696044922e-01) (25, -4.04280811548233032227e-01) (26, 4.87765409052371978760e-02) (27, 4.79298681020736694336e-01) (28, -5.83797991275787353516e-01) (29, 2.47613382339477539062e+00) (30, -4.28916066884994506836e-02) (31, -5.31395733356475830078e-01) (7, 1.48850166797637939453e+00) (8, -1.29230469465255737305e-02) (9, -1.99756100773811340332e-01) (10, 5.98664991557598114014e-02) (11, -5.72965517640113830566e-02) (12, -2.91269496083259582520e-02) (13, 6.46173834800720214844e-01) (14, -1.75943627953529357910e-01) (15, 8.34724426269531250000e-01) (16, -7.67134577035903930664e-02) (17, -6.11589774489402770996e-02) (18, -1.30602288991212844849e-02) (19, 9.62766818702220916748e-03) (20, -3.18178683519363403320e-02) (21, 9.67194288969039916992e-02) (22, 1.15556824207305908203e+00) (23, 8.37544724345207214355e-02) (24, 1.09455764293670654297e-01) (25, -3.00824284553527832031e+00) (26, 2.33395278453826904297e-01) (27, -9.56508982926607131958e-03) (28, -5.99492937326431274414e-02) (29, -1.18711858987808227539e-01) (30, -7.58370608091354370117e-02) (31, 2.93471347540616989136e-02) 
