FANN_FLO_2.1
num_layers=3
learning_rate=0.700000
connection_rate=1.000000
network_type=0
learning_momentum=0.000000
training_algorithm=2
train_error_function=0
train_stop_function=0
cascade_output_change_fraction=0.010000
quickprop_decay=-0.000100
quickprop_mu=1.750000
rprop_increase_factor=1.200000
rprop_decrease_factor=0.500000
rprop_delta_min=0.000000
rprop_delta_max=50.000000
rprop_delta_zero=0.100000
cascade_output_stagnation_epochs=12
cascade_candidate_change_fraction=0.010000
cascade_candidate_stagnation_epochs=12
cascade_max_out_epochs=150
cascade_max_cand_epochs=150
cascade_num_candidate_groups=2
bit_fail_limit=3.49999994039535522461e-01
cascade_candidate_limit=1.00000000000000000000e+03
cascade_weight_multiplier=4.00000005960464477539e-01
cascade_activation_functions_count=10
cascade_activation_functions=3 5 7 8 10 11 14 15 16 17 
cascade_activation_steepnesses_count=4
cascade_activation_steepnesses=2.50000000000000000000e-01 5.00000000000000000000e-01 7.50000000000000000000e-01 1.00000000000000000000e+00 
layer_sizes=7 25 5 
scale_included=0
neurons (num_inputs, activation_function, activation_steepness)=(0, 0, 0.00000000000000000000e+00) (0, 0, 0.00000000000000000000e+00) (0, 0, 0.00000000000000000000e+00) (0, 0, 0.00000000000000000000e+00) (0, 0, 0.00000000000000000000e+00) (0, 0, 0.00000000000000000000e+00) (0, 0, 0.00000000000000000000e+00) (7, 5, 5.00000000000000000000e-01) (7, 5, 5.00000000000000000000e-01) (7, 5, 5.00000000000000000000e-01) (7, 5, 5.00000000000000000000e-01) (7, 5, 5.00000000000000000000e-01) (7, 5, 5.00000000000000000000e-01) (7, 5, 5.00000000000000000000e-01) (7, 5, 5.00000000000000000000e-01) (7, 5, 5.00000000000000000000e-01) (7, 5, 5.00000000000000000000e-01) (7, 5, 5.00000000000000000000e-01) (7, 5, 5.00000000000000000000e-01) (7, 5, 5.00000000000000000000e-01) (7, 5, 5.00000000000000000000e-01) (7, 5, 5.00000000000000000000e-01) (7, 5, 5.00000000000000000000e-01) (7, 5, 5.00000000000000000000e-01) (7, 5, 5.00000000000000000000e-01) (7, 5, 5.00000000000000000000e-01) (7, 5, 5.00000000000000000000e-01) (7, 5, 5.00000000000000000000e-01) (7, 5, 5.00000000000000000000e-01) (7, 5, 5.00000000000000000000e-01) (7, 5, 5.00000000000000000000e-01) (0, 5, 5.00000000000000000000e-01) (25, 5, 5.00000000000000000000e-01) (25, 5, 5.00000000000000000000e-01) (25, 5, 5.00000000000000000000e-01) (25, 5, 5.00000000000000000000e-01) (0, 5, 5.00000000000000000000e-01) 
connections (connected_to_neuron, weight)=(0, -1.04129444807767868042e-02) (1, 2.44205296039581298828e-01) (2, 1.87945440411567687988e-01) (3, 1.97826191782951354980e-01) (4, 2.95771539211273193359e-01) (5, -8.45529437065124511719e-01) (6, 7.01921224594116210938e-01) (0, 7.75067448616027832031e-01) (1, -4.16083708405494689941e-02) (2, -4.60587069392204284668e-02) (3, 1.85940459370613098145e-01) (4, -3.96892333030700683594e+00) (5, 4.37595963478088378906e-01) (6, 2.55902707576751708984e-01) (0, 4.17475366592407226562e+00) (1, -2.44494700431823730469e+00) (2, 8.04826450347900390625e+00) (3, 9.93117690086364746094e-01) (4, 1.34946274757385253906e+00) (5, 1.30658376216888427734e+00) (6, 4.92995309829711914062e+00) (0, 9.29780483245849609375e-01) (1, 1.51754170656204223633e-01) (2, 1.96568399667739868164e-01) (3, -9.08054709434509277344e-01) (4, -2.72726505994796752930e-01) (5, -1.88030183315277099609e-01) (6, 2.57400184869766235352e-01) (0, 4.16474699974060058594e-01) (1, 3.74664157629013061523e-01) (2, -1.85218989849090576172e-01) (3, 1.47361600399017333984e+00) (4, 8.82067441940307617188e-01) (5, 3.18201065063476562500e-01) (6, 9.95456457138061523438e-01) (0, 1.18118238449096679688e+00) (1, -2.82471738755702972412e-02) (2, 6.55953958630561828613e-02) (3, -3.35526503622531890869e-02) (4, -8.19248557090759277344e-01) (5, 1.75788119435310363770e-01) (6, 3.50224018096923828125e-01) (0, 3.88242721557617187500e-01) (1, -3.15778627991676330566e-02) (2, -7.72667117416858673096e-03) (3, 4.30681198835372924805e-01) (4, 3.47831726074218750000e-01) (5, 2.00409486889839172363e-01) (6, 3.53950500488281250000e-01) (0, 1.01774752140045166016e+00) (1, 1.85561448335647583008e-01) (2, 6.43806517124176025391e-01) (3, 1.28352846950292587280e-02) (4, 1.37136206030845642090e-01) (5, 3.84761840105056762695e-01) (6, -1.04518994688987731934e-01) (0, 3.37621301412582397461e-01) (1, 3.78681540489196777344e-01) (2, -4.81559097766876220703e-01) (3, 1.53762793540954589844e+00) (4, 9.23496723175048828125e-01) (5, 3.68935763835906982422e-02) (6, 4.31902974843978881836e-01) (0, -1.08021116256713867188e+00) (1, 3.51336300373077392578e-01) (2, 2.88748234510421752930e-01) (3, 5.65065503120422363281e-01) (4, -2.39369273185729980469e-01) (5, 5.41862130165100097656e-01) (6, -1.70935560017824172974e-02) (0, 5.72825253009796142578e-01) (1, 5.50760626792907714844e-01) (2, 2.89203166961669921875e-01) (3, -1.18817806243896484375e+00) (4, -7.45330810546875000000e-01) (5, 2.10788324475288391113e-01) (6, -1.59089803695678710938e-01) (0, 7.18152880668640136719e-01) (1, 1.08430264517664909363e-02) (2, -3.29358309507369995117e-01) (3, -1.20996087789535522461e-01) (4, -4.20539766550064086914e-01) (5, 3.31091314554214477539e-01) (6, 2.43176609277725219727e-01) (0, 8.31285381317138671875e+00) (1, -1.36889982223510742188e+00) (2, -5.29455006122589111328e-01) (3, -1.84817104339599609375e+01) (4, -2.60820221900939941406e+00) (5, -9.48713481426239013672e-01) (6, 1.98599919676780700684e-01) (0, 1.25137662887573242188e+00) (1, 4.14102040231227874756e-02) (2, -2.73094177246093750000e-01) (3, -3.26764807105064392090e-02) (4, -1.17010481655597686768e-01) (5, -9.42492187023162841797e-01) (6, 3.93073081970214843750e-01) (0, 2.96510785818099975586e-01) (1, -1.14664360880851745605e-01) (2, 1.09943263232707977295e-01) (3, 1.41431176662445068359e+00) (4, 3.47343146800994873047e-01) (5, 1.87855824828147888184e-01) (6, 4.00403678417205810547e-01) (0, -1.45795667171478271484e+00) (1, -2.41663837432861328125e+00) (2, 8.55218791961669921875e+00) (3, 4.30660629272460937500e+00) (4, 2.19261026382446289062e+00) (5, -1.18049454689025878906e+00) (6, 7.64012634754180908203e-02) (0, -1.02430117130279541016e+00) (1, 4.03082251548767089844e-01) (2, 1.03660514578223228455e-02) (3, 1.80565905570983886719e+00) (4, 7.12168276309967041016e-01) (5, -1.17412112653255462646e-01) (6, 4.67740505933761596680e-01) (0, -3.91850948333740234375e-01) (1, 7.41180062294006347656e-01) (2, -3.52119684219360351562e-01) (3, 3.82628589868545532227e-01) (4, 9.90432918071746826172e-01) (5, 8.35485816001892089844e-01) (6, 3.33327442407608032227e-01) (0, 9.81235325336456298828e-01) (1, 5.16147136688232421875e-01) (2, 2.39304788410663604736e-02) (3, -9.60035264492034912109e-01) (4, -1.18451807647943496704e-02) (5, 6.11608445644378662109e-01) (6, -1.55864313244819641113e-01) (0, 3.88312721252441406250e+00) (1, 4.04891282320022583008e-01) (2, 8.41698169708251953125e-01) (3, 1.85732817649841308594e+00) (4, 1.62642836570739746094e+00) (5, 5.63617706298828125000e-01) (6, 1.51833266019821166992e-01) (0, -1.42020478844642639160e-01) (1, 1.92669704556465148926e-02) (2, 2.50595927238464355469e-01) (3, 2.20600986480712890625e+00) (4, 8.40308070182800292969e-01) (5, -1.89131706953048706055e-01) (6, 4.43654984235763549805e-01) (0, 3.21044230461120605469e+00) (1, -8.04664939641952514648e-03) (2, -2.10054472088813781738e-01) (3, 1.52741241455078125000e+00) (4, 1.24807481765747070312e+01) (5, 1.61176407337188720703e+00) (6, 4.90943282842636108398e-01) (0, 5.25352180004119873047e-01) (1, 4.61786210536956787109e-01) (2, 4.28239631652832031250e+00) (3, 3.77517414093017578125e+00) (4, 3.36521482467651367188e+00) (5, -1.98494061827659606934e-01) (6, 1.72910094261169433594e+00) (0, 4.91481721401214599609e-01) (1, -1.84760344028472900391e+00) (2, 1.11516868591308593750e+02) (3, 5.29185009002685546875e+00) (4, 1.22134268283843994141e+00) (5, -1.56617712974548339844e+00) (6, 2.56428456306457519531e+00) (7, 2.33605861663818359375e+00) (8, 7.33350038528442382812e+00) (9, -3.74644964933395385742e-01) (10, -4.69791221618652343750e+00) (11, 3.07007479667663574219e+00) (12, -4.17590439319610595703e-01) (13, 2.52682894468307495117e-01) (14, -1.26591384410858154297e+00) (15, 3.42797708511352539062e+00) (16, 1.05867481231689453125e+00) (17, -9.32959675788879394531e-01) (18, 7.42110460996627807617e-02) (19, 2.34937906265258789062e-01) (20, 6.32041990756988525391e-02) (21, 7.11158704757690429688e+00) (22, -2.80955135822296142578e-01) (23, 1.36589801311492919922e+00) (24, 2.77341365814208984375e-01) (25, -5.71726083755493164062e+00) (26, 7.59942650794982910156e-01) (27, 1.00807704925537109375e+01) (28, 8.97382259368896484375e-01) (29, 9.21095728874206542969e-01) (30, 1.77768021821975708008e-01) (31, 4.82793211936950683594e-01) (7, -7.29444026947021484375e+00) (8, -4.80540609359741210938e+00) (9, -3.20271563529968261719e+00) (10, -5.88144683837890625000e+00) (11, -1.78830468654632568359e+00) (12, 5.14614820480346679688e+00) (13, -1.06248655319213867188e+01) (14, 8.97717654705047607422e-01) (15, -2.99588537216186523438e+00) (16, 1.77337467670440673828e-01) (17, 4.15331602096557617188e+00) (18, -2.59894037246704101562e+00) (19, 5.10268354415893554688e+00) (20, -9.22980755567550659180e-02) (21, -1.55303731560707092285e-01) (22, 1.74177181720733642578e+00) (23, -2.15357255935668945312e+00) (24, -1.22276701033115386963e-01) (25, -6.79248714447021484375e+00) (26, 1.37959432601928710938e+00) (27, -5.34637868404388427734e-02) (28, -2.16106224060058593750e+00) (29, 8.27251136302947998047e-01) (30, 4.04293727874755859375e+00) (31, -1.29861819744110107422e+00) (7, -3.38240957260131835938e+00) (8, 3.39409351348876953125e-01) (9, 4.37068134546279907227e-01) (10, -2.75836616754531860352e-01) (11, 1.39633044600486755371e-01) (12, -3.80681455135345458984e-01) (13, 3.07598531246185302734e-01) (14, 3.64266127347946166992e-01) (15, -1.52753293514251708984e-01) (16, 3.87897610664367675781e-01) (17, 4.81306202709674835205e-02) (18, 3.75129342079162597656e-01) (19, -3.37125770747661590576e-02) (20, -1.90324044227600097656e+00) (21, 3.18597964942455291748e-02) (22, -8.06664079427719116211e-02) (23, -1.98503777384757995605e-01) (24, 3.34861457347869873047e-01) (25, 1.19339257478713989258e-01) (26, 5.93930125236511230469e-01) (27, -5.97840011119842529297e-01) (28, 1.55456393957138061523e-01) (29, 2.28263020515441894531e-01) (30, -3.06931864470243453979e-02) (31, 3.11152815818786621094e-01) (7, 1.89454627037048339844e+00) (8, 3.15592861175537109375e+00) (9, 2.03111365437507629395e-01) (10, 1.10136711597442626953e+00) (11, -1.99837405234575271606e-02) (12, 7.07914113998413085938e+00) (13, 1.19472253322601318359e+00) (14, 8.29830095171928405762e-02) (15, 1.95367321372032165527e-01) (16, -3.47121804952621459961e-01) (17, 5.30774354934692382812e-01) (18, 2.19838690757751464844e+00) (19, 5.38547821342945098877e-02) (20, 1.95777833461761474609e+00) (21, 7.78484225273132324219e-01) (22, -5.56938588619232177734e-01) (23, -3.44131924211978912354e-02) (24, -1.40566423535346984863e-01) (25, 4.47867721319198608398e-01) (26, -1.30425333976745605469e-01) (27, 3.89357805252075195312e-01) (28, -1.58332481980323791504e-01) (29, 6.11665248870849609375e-01) (30, 5.11449947953224182129e-02) (31, 2.41699203848838806152e-01) 
