FANN_FLO_2.1
num_layers=3
learning_rate=0.700000
connection_rate=1.000000
network_type=0
learning_momentum=0.000000
training_algorithm=2
train_error_function=0
train_stop_function=0
cascade_output_change_fraction=0.010000
quickprop_decay=-0.000100
quickprop_mu=1.750000
rprop_increase_factor=1.200000
rprop_decrease_factor=0.500000
rprop_delta_min=0.000000
rprop_delta_max=50.000000
rprop_delta_zero=0.100000
cascade_output_stagnation_epochs=12
cascade_candidate_change_fraction=0.010000
cascade_candidate_stagnation_epochs=12
cascade_max_out_epochs=150
cascade_max_cand_epochs=150
cascade_num_candidate_groups=2
bit_fail_limit=3.49999994039535522461e-01
cascade_candidate_limit=1.00000000000000000000e+03
cascade_weight_multiplier=4.00000005960464477539e-01
cascade_activation_functions_count=10
cascade_activation_functions=3 5 7 8 10 11 14 15 16 17 
cascade_activation_steepnesses_count=4
cascade_activation_steepnesses=2.50000000000000000000e-01 5.00000000000000000000e-01 7.50000000000000000000e-01 1.00000000000000000000e+00 
layer_sizes=7 25 5 
scale_included=0
neurons (num_inputs, activation_function, activation_steepness)=(0, 0, 0.00000000000000000000e+00) (0, 0, 0.00000000000000000000e+00) (0, 0, 0.00000000000000000000e+00) (0, 0, 0.00000000000000000000e+00) (0, 0, 0.00000000000000000000e+00) (0, 0, 0.00000000000000000000e+00) (0, 0, 0.00000000000000000000e+00) (7, 5, 8.99999976158142089844e-01) (7, 5, 8.99999976158142089844e-01) (7, 5, 8.99999976158142089844e-01) (7, 5, 8.99999976158142089844e-01) (7, 5, 8.99999976158142089844e-01) (7, 5, 8.99999976158142089844e-01) (7, 5, 8.99999976158142089844e-01) (7, 5, 8.99999976158142089844e-01) (7, 5, 8.99999976158142089844e-01) (7, 5, 8.99999976158142089844e-01) (7, 5, 8.99999976158142089844e-01) (7, 5, 8.99999976158142089844e-01) (7, 5, 8.99999976158142089844e-01) (7, 5, 8.99999976158142089844e-01) (7, 5, 8.99999976158142089844e-01) (7, 5, 8.99999976158142089844e-01) (7, 5, 8.99999976158142089844e-01) (7, 5, 8.99999976158142089844e-01) (7, 5, 8.99999976158142089844e-01) (7, 5, 8.99999976158142089844e-01) (7, 5, 8.99999976158142089844e-01) (7, 5, 8.99999976158142089844e-01) (7, 5, 8.99999976158142089844e-01) (7, 5, 8.99999976158142089844e-01) (0, 5, 8.99999976158142089844e-01) (25, 5, 3.00000011920928955078e-01) (25, 5, 3.00000011920928955078e-01) (25, 5, 3.00000011920928955078e-01) (25, 5, 3.00000011920928955078e-01) (0, 5, 3.00000011920928955078e-01) 
connections (connected_to_neuron, weight)=(0, 4.47121620178222656250e+00) (1, -1.05584967136383056641e+00) (2, 1.66116762161254882812e+00) (3, -1.20851360261440277100e-01) (4, 6.36411070823669433594e-01) (5, -6.54039084911346435547e-01) (6, -3.12922549247741699219e+00) (0, 8.98005589842796325684e-02) (1, -1.51750892400741577148e-02) (2, -1.15424661636352539062e+01) (3, -4.53778886795043945312e+00) (4, 3.87976646423339843750e+00) (5, -1.63073945045471191406e+00) (6, -2.37829422950744628906e+00) (0, 1.44775196909904479980e-01) (1, 1.10098823904991149902e-01) (2, 1.02509701251983642578e+00) (3, -2.15940332412719726562e+00) (4, 9.04796600341796875000e-01) (5, 3.28578448295593261719e+00) (6, -4.17661952972412109375e+00) (0, 9.41848576068878173828e-01) (1, 2.44180366396903991699e-01) (2, -9.66394469141960144043e-02) (3, 3.44154357910156250000e-01) (4, -4.65822041034698486328e-01) (5, 5.31845927238464355469e-01) (6, 1.57899707555770874023e-01) (0, 2.76631303131580352783e-02) (1, 4.58556270599365234375e+00) (2, -3.26309013366699218750e+00) (3, -2.56825953722000122070e-01) (4, 1.09642410278320312500e+00) (5, 4.44977426528930664062e+00) (6, 3.98253381252288818359e-01) (0, 7.09206104278564453125e+00) (1, 1.17148661613464355469e+00) (2, 1.64364981651306152344e+00) (3, -3.91936115920543670654e-02) (4, -5.83030557632446289062e+00) (5, 2.94240760803222656250e+00) (6, 1.35237419605255126953e+00) (0, 1.03520178794860839844e+00) (1, -4.79089796543121337891e-01) (2, 1.15156054496765136719e+00) (3, -9.40160512924194335938e-01) (4, -7.98963606357574462891e-02) (5, 8.90650376677513122559e-02) (6, -8.67474019527435302734e-01) (0, -4.17019277811050415039e-01) (1, 2.24086570739746093750e+00) (2, 2.07932996749877929688e+00) (3, 1.67451560497283935547e-01) (4, 6.69691503047943115234e-01) (5, -2.73984730243682861328e-01) (6, 1.05330371856689453125e+00) (0, -5.68209946155548095703e-01) (1, -1.03079557418823242188e+00) (2, 1.72776710987091064453e+00) (3, -9.43071126937866210938e-01) (4, 6.17970347404479980469e-01) (5, -8.28362643718719482422e-01) (6, -3.34018677473068237305e-01) (0, -2.91270583868026733398e-01) (1, 5.01815021038055419922e-01) (2, -2.59919255971908569336e-01) (3, 5.72091460227966308594e-01) (4, 1.31532335281372070312e+00) (5, 4.27411377429962158203e-01) (6, 4.19164597988128662109e-01) (0, 4.27078157663345336914e-01) (1, -3.03229236602783203125e+00) (2, -2.21297240257263183594e+00) (3, -1.39384344220161437988e-01) (4, -2.14008545875549316406e+00) (5, -1.44504857063293457031e+00) (6, 7.77226090431213378906e-02) (0, 1.79059658050537109375e+01) (1, -4.07678604125976562500e+00) (2, -9.71760845184326171875e+00) (3, 6.06085836887359619141e-01) (4, 2.22135365009307861328e-01) (5, -4.77354854345321655273e-01) (6, 1.07074743652343750000e+03) (0, 6.46280050277709960938e-01) (1, 1.19619078934192657471e-01) (2, 1.05607831478118896484e+00) (3, -9.01311397552490234375e-01) (4, 2.88271695375442504883e-01) (5, -2.73783266544342041016e-01) (6, -1.01469516754150390625e+00) (0, 4.90866973996162414551e-03) (1, 3.63084346055984497070e-01) (2, 8.39839100837707519531e-01) (3, -4.19159419834613800049e-02) (4, 3.15887004137039184570e-01) (5, 1.72030583024024963379e-01) (6, 2.29034051299095153809e-01) (0, 2.48637557029724121094e-01) (1, 5.97005248069763183594e-01) (2, 2.08103775978088378906e+00) (3, 8.32891106605529785156e-01) (4, 2.39585638046264648438e-01) (5, 1.10788917541503906250e+00) (6, 1.41737520694732666016e+00) (0, 9.14336264133453369141e-01) (1, 7.35459136962890625000e+00) (2, 8.41941952705383300781e-01) (3, -4.19613122940063476562e-01) (4, 2.95597821474075317383e-01) (5, -4.03455162048339843750e+00) (6, -1.99572300910949707031e+00) (0, -2.11235785484313964844e+00) (1, -2.16032743453979492188e+00) (2, 5.30961084365844726562e+00) (3, -1.65896821022033691406e+00) (4, 9.18575763702392578125e-01) (5, -5.70693969726562500000e+00) (6, 5.52310943603515625000e-02) (0, 5.54628789424896240234e-01) (1, 1.45898532867431640625e+00) (2, -1.05326282978057861328e+00) (3, 2.37252259254455566406e+00) (4, 4.50240582227706909180e-01) (5, -1.10714502632617950439e-01) (6, 9.49129819869995117188e-01) (0, -1.75837612152099609375e+00) (1, -9.75170060992240905762e-02) (2, -3.58065724372863769531e-01) (3, 1.01124775409698486328e+00) (4, -1.44762098789215087891e+00) (5, 8.69409680366516113281e-01) (6, 3.74235332012176513672e-01) (0, -6.35352134704589843750e-01) (1, 5.12584805488586425781e-01) (2, 2.44205880165100097656e+00) (3, -7.55935668945312500000e-01) (4, 2.31555546633899211884e-03) (5, 1.49545282125473022461e-01) (6, 3.34644347429275512695e-01) (0, 4.23598623275756835938e+00) (1, -4.33443307876586914062e+00) (2, 5.25944292545318603516e-01) (3, -6.18628168106079101562e+00) (4, -1.90852606296539306641e+00) (5, -3.21453839540481567383e-01) (6, 3.65040111541748046875e+00) (0, 1.10328212380409240723e-01) (1, 3.12210679054260253906e+00) (2, -9.39055919647216796875e-01) (3, 1.73870801925659179688e-01) (4, -2.95844465494155883789e-01) (5, -3.86624246835708618164e-01) (6, 1.87609910964965820312e+00) (0, 1.02863624691963195801e-01) (1, -1.60455301403999328613e-01) (2, 4.52633023262023925781e-01) (3, 8.95689055323600769043e-02) (4, 6.24662861227989196777e-02) (5, -9.76288914680480957031e-01) (6, 2.29991897940635681152e-01) (0, 1.00974645614624023438e+01) (1, 7.44789648056030273438e+00) (2, 2.28766798973083496094e+00) (3, 7.41639041900634765625e+00) (4, -1.22443485260009765625e+00) (5, 1.21950178146362304688e+01) (6, -1.59583345055580139160e-01) (7, -2.75240874290466308594e+00) (8, 1.70345157384872436523e-01) (9, -3.41622233390808105469e+00) (10, 4.91588783264160156250e+00) (11, -5.13293147087097167969e-01) (12, -1.26638069748878479004e-01) (13, -9.87387299537658691406e-02) (14, -6.76331043243408203125e-01) (15, -6.13493299484252929688e+00) (16, 6.48197031021118164062e+00) (17, -6.50760698318481445312e+00) (18, 8.17039585113525390625e+00) (19, -2.16576457023620605469e+00) (20, 3.22796654701232910156e+00) (21, -2.15855789184570312500e+01) (22, 3.95762324333190917969e-01) (23, -4.21354562044143676758e-01) (24, -5.19468927383422851562e+00) (25, 3.56649875640869140625e+00) (26, -9.57447719573974609375e+00) (27, -1.15250968933105468750e+01) (28, 4.09457683563232421875e+00) (29, -4.42920112609863281250e+00) (30, -1.13661907613277435303e-01) (31, 7.19145917892456054688e+00) (7, 5.23377001285552978516e-01) (8, 3.59627008438110351562e+00) (9, 2.40690660476684570312e+00) (10, -1.34643812179565429688e+01) (11, -2.02390594482421875000e+01) (12, 1.39939463138580322266e+00) (13, 1.85948908329010009766e+00) (14, 4.43594694137573242188e+00) (15, 8.59359836578369140625e+00) (16, -1.74723930358886718750e+01) (17, 9.86972808837890625000e-01) (18, -4.92744296789169311523e-01) (19, 1.50660598278045654297e+00) (20, 2.16304913163185119629e-01) (21, 7.24807281494140625000e+01) (22, 6.55996370315551757812e+00) (23, 8.67615890502929687500e+00) (24, -1.12608251571655273438e+01) (25, -8.00065422058105468750e+00) (26, 7.51130294799804687500e+00) (27, 6.39233827590942382812e+00) (28, 1.86572238802909851074e-01) (29, 5.35429939627647399902e-02) (30, -3.69127488136291503906e+00) (31, 1.77296474575996398926e-01) (7, 5.57417385280132293701e-02) (8, 5.83042986690998077393e-02) (9, 6.71096742153167724609e-01) (10, 6.62195444107055664062e-01) (11, -5.33156454563140869141e-01) (12, 5.82080846652388572693e-03) (13, 5.56721352040767669678e-02) (14, -3.76501411199569702148e-01) (15, 4.03841704130172729492e-01) (16, 3.41003417968750000000e-01) (17, 1.81228265166282653809e-01) (18, -3.97557318210601806641e-01) (19, 3.59279096126556396484e-01) (20, 3.56600761413574218750e+00) (21, 6.02984368801116943359e-01) (22, 4.84834164381027221680e-02) (23, 3.43519337475299835205e-02) (24, -1.97863698005676269531e-01) (25, 2.92888045310974121094e-01) (26, -6.22923910617828369141e-01) (27, -3.75491231679916381836e-02) (28, 1.55587029457092285156e+00) (29, -6.48251390457153320312e+00) (30, -6.73189908266067504883e-02) (31, 2.66687795519828796387e-02) (7, 1.47395801544189453125e+00) (8, 1.52205944061279296875e-01) (9, 2.12271198630332946777e-01) (10, 3.01024341583251953125e+00) (11, 1.98568224906921386719e-01) (12, -3.58752124011516571045e-02) (13, -5.35493995994329452515e-03) (14, -6.42299503087997436523e-02) (15, 6.51387823745608329773e-03) (16, -8.72223794460296630859e-01) (17, 4.55843843519687652588e-03) (18, 3.85202378034591674805e-01) (19, 1.28445729613304138184e-01) (20, -8.85515630245208740234e-01) (21, -8.44320803880691528320e-02) (22, 3.62313427031040191650e-02) (23, 2.51392453908920288086e-01) (24, -1.25113666057586669922e-01) (25, 3.23616862297058105469e-01) (26, 1.03215888142585754395e-01) (27, 1.34464681148529052734e-01) (28, 5.54872035980224609375e-01) (29, 5.44648468494415283203e-01) (30, 5.26773221790790557861e-02) (31, 1.32703498005867004395e-01) 
