FANN_FLO_2.1
num_layers=3
learning_rate=0.700000
connection_rate=1.000000
network_type=0
learning_momentum=0.000000
training_algorithm=2
train_error_function=0
train_stop_function=0
cascade_output_change_fraction=0.010000
quickprop_decay=-0.000100
quickprop_mu=1.750000
rprop_increase_factor=1.200000
rprop_decrease_factor=0.500000
rprop_delta_min=0.000000
rprop_delta_max=50.000000
rprop_delta_zero=0.100000
cascade_output_stagnation_epochs=12
cascade_candidate_change_fraction=0.010000
cascade_candidate_stagnation_epochs=12
cascade_max_out_epochs=150
cascade_max_cand_epochs=150
cascade_num_candidate_groups=2
bit_fail_limit=3.49999994039535522461e-01
cascade_candidate_limit=1.00000000000000000000e+03
cascade_weight_multiplier=4.00000005960464477539e-01
cascade_activation_functions_count=10
cascade_activation_functions=3 5 7 8 10 11 14 15 16 17 
cascade_activation_steepnesses_count=4
cascade_activation_steepnesses=2.50000000000000000000e-01 5.00000000000000000000e-01 7.50000000000000000000e-01 1.00000000000000000000e+00 
layer_sizes=6 21 5 
scale_included=0
neurons (num_inputs, activation_function, activation_steepness)=(0, 0, 0.00000000000000000000e+00) (0, 0, 0.00000000000000000000e+00) (0, 0, 0.00000000000000000000e+00) (0, 0, 0.00000000000000000000e+00) (0, 0, 0.00000000000000000000e+00) (0, 0, 0.00000000000000000000e+00) (6, 5, 5.00000000000000000000e-01) (6, 5, 5.00000000000000000000e-01) (6, 5, 5.00000000000000000000e-01) (6, 5, 5.00000000000000000000e-01) (6, 5, 5.00000000000000000000e-01) (6, 5, 5.00000000000000000000e-01) (6, 5, 5.00000000000000000000e-01) (6, 5, 5.00000000000000000000e-01) (6, 5, 5.00000000000000000000e-01) (6, 5, 5.00000000000000000000e-01) (6, 5, 5.00000000000000000000e-01) (6, 5, 5.00000000000000000000e-01) (6, 5, 5.00000000000000000000e-01) (6, 5, 5.00000000000000000000e-01) (6, 5, 5.00000000000000000000e-01) (6, 5, 5.00000000000000000000e-01) (6, 5, 5.00000000000000000000e-01) (6, 5, 5.00000000000000000000e-01) (6, 5, 5.00000000000000000000e-01) (6, 5, 5.00000000000000000000e-01) (0, 5, 5.00000000000000000000e-01) (21, 5, 5.00000000000000000000e-01) (21, 5, 5.00000000000000000000e-01) (21, 5, 5.00000000000000000000e-01) (21, 5, 5.00000000000000000000e-01) (0, 5, 5.00000000000000000000e-01) 
connections (connected_to_neuron, weight)=(0, 9.89959597587585449219e-01) (1, 3.94569516181945800781e-01) (2, 1.11495399475097656250e+02) (3, 2.24554419517517089844e+00) (4, 1.22597587108612060547e+00) (5, 3.37303590774536132812e+00) (0, -2.29030394554138183594e+00) (1, -1.29309689998626708984e+00) (2, 6.64637374877929687500e+00) (3, 1.45061254501342773438e+00) (4, 1.30848276615142822266e+00) (5, 4.50191211700439453125e+00) (0, -8.72302532196044921875e-01) (1, 4.57484424114227294922e-01) (2, 2.36302280426025390625e+00) (3, 6.33046329021453857422e-02) (4, 1.23158864676952362061e-01) (5, 2.68892258405685424805e-01) (0, 6.65694296360015869141e-01) (1, -3.11680790036916732788e-02) (2, -6.55385851860046386719e-01) (3, 4.03760045766830444336e-01) (4, 3.36970761418342590332e-02) (5, 2.19727069139480590820e-01) (0, 6.14760458469390869141e-01) (1, -1.52517169713973999023e-01) (2, 9.44414079189300537109e-01) (3, 6.55625700950622558594e-01) (4, 3.85516077280044555664e-01) (5, -2.20614504069089889526e-02) (0, 2.95047044754028320312e-01) (1, 1.04405534267425537109e+00) (2, 3.38312292098999023438e+00) (3, 4.21066331863403320312e+00) (4, 8.73831033706665039062e-01) (5, 3.13110500574111938477e-01) (0, 5.09250640869140625000e-01) (1, 5.59716820716857910156e-01) (2, -3.11500883102416992188e+00) (3, 1.67472302913665771484e+00) (4, -1.97731530666351318359e+00) (5, 2.79792356491088867188e+00) (0, 1.01124489307403564453e+00) (1, -3.79516482353210449219e-01) (2, 8.39074313640594482422e-01) (3, -1.34102451801300048828e+00) (4, 3.71973961591720581055e-01) (5, 3.01737219095230102539e-01) (0, -4.21803772449493408203e-01) (1, -2.26300973445177078247e-02) (2, 3.48787695169448852539e-01) (3, 1.91264867782592773438e+00) (4, 5.71498349308967590332e-02) (5, 9.36200141906738281250e-01) (0, -7.30899572372436523438e-01) (1, -5.19953407347202301025e-02) (2, 1.63493740558624267578e+00) (3, 7.47947514057159423828e-01) (4, 2.04317927360534667969e+00) (5, 7.84230768680572509766e-01) (0, 1.61752593517303466797e+00) (1, 3.84388625621795654297e-01) (2, -1.23299404978752136230e-01) (3, 5.02494871616363525391e-01) (4, -7.18638062477111816406e-01) (5, -2.29530110955238342285e-01) (0, -2.00335934758186340332e-01) (1, 1.05685508251190185547e+00) (2, 2.62530827522277832031e+00) (3, -1.72026231884956359863e-01) (4, 7.17747271060943603516e-01) (5, -1.18618674576282501221e-01) (0, 1.06116557121276855469e+00) (1, -1.08855724334716796875e-01) (2, -2.49080985784530639648e-01) (3, 1.45977651700377464294e-02) (4, -5.79923450946807861328e-01) (5, 9.19048786163330078125e-02) (0, 2.24945497512817382812e+00) (1, 3.12626361846923828125e-02) (2, -5.97469806671142578125e-01) (3, -1.52184782028198242188e+01) (4, -6.04474127292633056641e-01) (5, -3.99399733543395996094e+00) (0, -2.00543761253356933594e+00) (1, 6.02604635059833526611e-02) (2, 6.86675608158111572266e-01) (3, -3.12760621309280395508e-01) (4, -1.19048035144805908203e+00) (5, -9.15031373500823974609e-01) (0, -4.22714157104492187500e+01) (1, 8.78552436828613281250e+00) (2, 1.92022552490234375000e+01) (3, 2.93487095832824707031e+00) (4, -4.74167644977569580078e-01) (5, 1.34087114334106445312e+01) (0, -4.21250190734863281250e+01) (1, -8.04084777832031250000e+00) (2, 6.36597490310668945312e+00) (3, 4.78939485549926757812e+00) (4, -1.93279576301574707031e+00) (5, 7.10333728790283203125e+00) (0, -2.38643273711204528809e-01) (1, 3.95084947347640991211e-01) (2, 5.74272513389587402344e-01) (3, -9.24672424793243408203e-01) (4, -2.34015539288520812988e-01) (5, 1.26584097743034362793e-01) (0, 9.88869428634643554688e-01) (1, 3.33462834358215332031e-01) (2, -3.99315357208251953125e-01) (3, -6.74887239933013916016e-01) (4, 1.98964464664459228516e+00) (5, -3.71473096311092376709e-02) (0, -1.13280422985553741455e-01) (1, 2.04542613029479980469e+00) (2, -1.03890132904052734375e+00) (3, 4.29405957460403442383e-01) (4, 1.30022794008255004883e-01) (5, 1.76748061180114746094e+00) (6, 2.27648496627807617188e-01) (7, -1.00843942165374755859e+00) (8, 1.32839465141296386719e+00) (9, 1.06867628097534179688e+01) (10, 2.50718736648559570312e+00) (11, 7.33490288257598876953e-01) (12, -5.63948452472686767578e-01) (13, -3.74739146232604980469e+00) (14, 1.75601272583007812500e+01) (15, 4.56300067901611328125e+00) (16, 2.25698187947273254395e-01) (17, -2.40449357032775878906e+00) (18, 3.29781079292297363281e+00) (19, 1.88784205913543701172e+00) (20, -1.87668740749359130859e+00) (21, -2.44079336524009704590e-01) (22, 6.52191787958145141602e-02) (23, -3.92198371887207031250e+00) (24, -5.83428001403808593750e+00) (25, 3.22257709503173828125e+00) (26, 7.63198733329772949219e-01) (6, 5.31606626510620117188e+00) (7, -4.03889083862304687500e+00) (8, 1.78462064266204833984e+00) (9, 2.87372231483459472656e-01) (10, -5.65424871444702148438e+00) (11, -8.09325122833251953125e+00) (12, -9.61270236968994140625e+00) (13, -2.91811823844909667969e+00) (14, 1.14713678359985351562e+01) (15, -3.72862005233764648438e+00) (16, 1.00141191482543945312e+01) (17, 3.29406809806823730469e+00) (18, 3.32753509283065795898e-01) (19, 5.74057674407958984375e+00) (20, -5.49492716789245605469e-01) (21, -3.49035882949829101562e+00) (22, 3.20580577850341796875e+00) (23, -5.12538552284240722656e-01) (24, -1.12379336357116699219e+00) (25, 1.18170940876007080078e+00) (26, -7.47007846832275390625e-01) (6, -4.94513548910617828369e-02) (7, 1.66927993297576904297e+00) (8, 1.38672387599945068359e+00) (9, -1.53661346435546875000e+00) (10, 2.84660625457763671875e+00) (11, -5.44554553925991058350e-02) (12, 5.52390217781066894531e-01) (13, -6.75038516521453857422e-01) (14, 2.33828946948051452637e-01) (15, 6.62050783634185791016e-01) (16, 4.52395856380462646484e-01) (17, -1.48434638977050781250e+00) (18, -4.47545051574707031250e-02) (19, -2.41795647889375686646e-02) (20, 3.64311188459396362305e-02) (21, 3.50684732198715209961e-01) (22, -3.24470996856689453125e-01) (23, 1.00632286071777343750e+00) (24, 4.49332743883132934570e-01) (25, -6.27089834213256835938e+00) (26, 3.46830695867538452148e-01) (6, -9.45685151964426040649e-03) (7, 6.79580926895141601562e-01) (8, 5.11998645961284637451e-02) (9, 1.44556498527526855469e+00) (10, 1.97795450687408447266e-01) (11, -4.19770088046789169312e-03) (12, 6.70627951622009277344e-02) (13, 1.05137014389038085938e+00) (14, 2.01419234275817871094e-01) (15, -8.36272314190864562988e-02) (16, 1.57208514213562011719e+00) (17, -1.89616288989782333374e-02) (18, 3.93979597091674804688e+00) (19, 1.89390145242214202881e-02) (20, 2.33303475379943847656e+00) (21, 1.35510909557342529297e+00) (22, -1.55923056602478027344e+00) (23, -3.39230716228485107422e-01) (24, -5.98350688815116882324e-02) (25, 1.62513524293899536133e-01) (26, 1.87730833888053894043e-01) 
