FANN_FLO_2.1
num_layers=3
learning_rate=0.700000
connection_rate=1.000000
network_type=0
learning_momentum=0.000000
training_algorithm=2
train_error_function=0
train_stop_function=0
cascade_output_change_fraction=0.010000
quickprop_decay=-0.000100
quickprop_mu=1.750000
rprop_increase_factor=1.200000
rprop_decrease_factor=0.500000
rprop_delta_min=0.000000
rprop_delta_max=50.000000
rprop_delta_zero=0.100000
cascade_output_stagnation_epochs=12
cascade_candidate_change_fraction=0.010000
cascade_candidate_stagnation_epochs=12
cascade_max_out_epochs=150
cascade_max_cand_epochs=150
cascade_num_candidate_groups=2
bit_fail_limit=3.49999994039535522461e-01
cascade_candidate_limit=1.00000000000000000000e+03
cascade_weight_multiplier=4.00000005960464477539e-01
cascade_activation_functions_count=10
cascade_activation_functions=3 5 7 8 10 11 14 15 16 17 
cascade_activation_steepnesses_count=4
cascade_activation_steepnesses=2.50000000000000000000e-01 5.00000000000000000000e-01 7.50000000000000000000e-01 1.00000000000000000000e+00 
layer_sizes=7 33 5 
scale_included=0
neurons (num_inputs, activation_function, activation_steepness)=(0, 0, 0.00000000000000000000e+00) (0, 0, 0.00000000000000000000e+00) (0, 0, 0.00000000000000000000e+00) (0, 0, 0.00000000000000000000e+00) (0, 0, 0.00000000000000000000e+00) (0, 0, 0.00000000000000000000e+00) (0, 0, 0.00000000000000000000e+00) (7, 5, 8.99999976158142089844e-01) (7, 5, 8.99999976158142089844e-01) (7, 5, 8.99999976158142089844e-01) (7, 5, 8.99999976158142089844e-01) (7, 5, 8.99999976158142089844e-01) (7, 5, 8.99999976158142089844e-01) (7, 5, 8.99999976158142089844e-01) (7, 5, 8.99999976158142089844e-01) (7, 5, 8.99999976158142089844e-01) (7, 5, 8.99999976158142089844e-01) (7, 5, 8.99999976158142089844e-01) (7, 5, 8.99999976158142089844e-01) (7, 5, 8.99999976158142089844e-01) (7, 5, 8.99999976158142089844e-01) (7, 5, 8.99999976158142089844e-01) (7, 5, 8.99999976158142089844e-01) (7, 5, 8.99999976158142089844e-01) (7, 5, 8.99999976158142089844e-01) (7, 5, 8.99999976158142089844e-01) (7, 5, 8.99999976158142089844e-01) (7, 5, 8.99999976158142089844e-01) (7, 5, 8.99999976158142089844e-01) (7, 5, 8.99999976158142089844e-01) (7, 5, 8.99999976158142089844e-01) (7, 5, 8.99999976158142089844e-01) (7, 5, 8.99999976158142089844e-01) (7, 5, 8.99999976158142089844e-01) (7, 5, 8.99999976158142089844e-01) (7, 5, 8.99999976158142089844e-01) (7, 5, 8.99999976158142089844e-01) (7, 5, 8.99999976158142089844e-01) (7, 5, 8.99999976158142089844e-01) (0, 5, 8.99999976158142089844e-01) (33, 5, 3.00000011920928955078e-01) (33, 5, 3.00000011920928955078e-01) (33, 5, 3.00000011920928955078e-01) (33, 5, 3.00000011920928955078e-01) (0, 5, 3.00000011920928955078e-01) 
connections (connected_to_neuron, weight)=(0, 7.09023189544677734375e+00) (1, -6.69040632247924804688e+00) (2, 1.49945592880249023438e+00) (3, 3.49163413047790527344e+00) (4, -1.32510542869567871094e+00) (5, 4.25586670637130737305e-01) (6, 3.90614318847656250000e+00) (0, 6.97993397712707519531e-01) (1, 3.45292627811431884766e-01) (2, 2.28781059384346008301e-01) (3, -4.32826504111289978027e-02) (4, 8.60652253031730651855e-02) (5, 3.32281827926635742188e-01) (6, -1.38716310262680053711e-01) (0, 1.73206925392150878906e+00) (1, 3.78700345754623413086e-01) (2, 1.03822743892669677734e+00) (3, 4.36234176158905029297e-01) (4, -1.94807335734367370605e-01) (5, -1.51491236686706542969e+00) (6, 1.09642851352691650391e+00) (0, -6.41071128845214843750e+00) (1, -3.86797356605529785156e+00) (2, 1.02198085784912109375e+01) (3, 3.38876962661743164062e+00) (4, -3.99730861186981201172e-01) (5, 7.71928071975708007812e+00) (6, 3.87412881851196289062e+00) (0, 6.67080402374267578125e-01) (1, 2.04402059316635131836e-02) (2, -1.03916138410568237305e-01) (3, -1.98181420564651489258e-01) (4, -4.95439767837524414062e-01) (5, -2.77738541364669799805e-01) (6, 3.83864253759384155273e-01) (0, 2.54053640365600585938e+00) (1, -9.18711125850677490234e-01) (2, 8.68326842784881591797e-01) (3, -1.45715788006782531738e-01) (4, -1.38413965702056884766e-01) (5, 1.68739223480224609375e+00) (6, -2.15273331850767135620e-02) (0, 5.59851467609405517578e-01) (1, 9.51517760753631591797e-01) (2, 2.62183094024658203125e+00) (3, 1.80402982234954833984e+00) (4, 1.82145607471466064453e+00) (5, 4.24173355102539062500e-01) (6, 1.00902795791625976562e+00) (0, 6.17324650287628173828e-01) (1, 2.64589101076126098633e-01) (2, 5.96465617418289184570e-02) (3, -1.02055691182613372803e-01) (4, -6.95483803749084472656e-01) (5, -1.77766472101211547852e-01) (6, 3.65499138832092285156e-01) (0, 1.28939771652221679688e+00) (1, -3.95826429128646850586e-01) (2, -1.19164615869522094727e-01) (3, -5.73673248291015625000e-01) (4, -8.31354022026062011719e-01) (5, 2.72452592849731445312e-01) (6, 3.15160155296325683594e-01) (0, 9.67178583145141601562e-01) (1, 7.27431237697601318359e-01) (2, -4.05882209539413452148e-01) (3, -2.11138558387756347656e+00) (4, -8.64428162574768066406e-01) (5, 1.02584965527057647705e-01) (6, -2.03287482261657714844e-01) (0, 2.69332313537597656250e+00) (1, -8.64778041839599609375e+00) (2, 7.36819152832031250000e+01) (3, 1.89503359794616699219e+00) (4, -1.19441695511341094971e-01) (5, -3.73230743408203125000e+00) (6, -7.06972360610961914062e-01) (0, 9.24918234348297119141e-01) (1, 4.05126214027404785156e-01) (2, 3.88177931308746337891e-01) (3, -1.20358443260192871094e+00) (4, -1.36883854866027832031e+00) (5, -2.55650520324707031250e-01) (6, -4.37918715178966522217e-02) (0, 1.93498417735099792480e-01) (1, 6.69788658618927001953e-01) (2, -9.95641350746154785156e-01) (3, 1.36323666572570800781e+00) (4, -1.27904176712036132812e-01) (5, 5.00539004802703857422e-01) (6, 4.11382675170898437500e-01) (0, 2.05057430267333984375e+00) (1, -8.60186636447906494141e-01) (2, 6.45974352955818176270e-02) (3, 2.76305556297302246094e+00) (4, 5.82393121719360351562e+00) (5, 8.30457031726837158203e-01) (6, 6.88230395317077636719e-01) (0, -5.92509321868419647217e-02) (1, 6.93339481949806213379e-02) (2, 1.94025769829750061035e-01) (3, -8.77315625548362731934e-02) (4, -3.88510450720787048340e-02) (5, 2.70872414112091064453e-01) (6, 4.09364461898803710938e-01) (0, -2.35569190979003906250e+00) (1, 2.83927416801452636719e+00) (2, -4.37079906463623046875e+00) (3, -3.89600455760955810547e-01) (4, -4.19263029098510742188e+00) (5, 9.79848265647888183594e-01) (6, -3.15316677093505859375e+00) (0, 4.37202185392379760742e-01) (1, 7.01820731163024902344e-01) (2, 1.39883503317832946777e-01) (3, -2.68458336591720581055e-01) (4, -9.39944922924041748047e-01) (5, 5.97956553101539611816e-02) (6, 2.01731830835342407227e-01) (0, 4.69930601119995117188e+00) (1, 1.36035025119781494141e-01) (2, -4.40346002578735351562e-01) (3, 5.63636124134063720703e-01) (4, 1.39981806278228759766e-01) (5, 4.77834939956665039062e-02) (6, 3.76665741205215454102e-02) (0, 1.92152202129364013672e-01) (1, 1.02784916758537292480e-01) (2, -1.10286720097064971924e-01) (3, 2.03904271125793457031e+00) (4, 3.92248541116714477539e-01) (5, 5.61401486396789550781e-01) (6, 8.10765385627746582031e-01) (0, 5.67352342605590820312e+00) (1, -1.10245454311370849609e+00) (2, 7.00918054580688476562e+00) (3, 6.71872615814208984375e-01) (4, -4.15171432495117187500e+00) (5, -1.62630331516265869141e+00) (6, 7.44618368148803710938e+00) (0, -4.14824295043945312500e+00) (1, 4.93398332595825195312e+00) (2, -2.19816684722900390625e+00) (3, 1.16884222030639648438e+01) (4, 2.36591148376464843750e+00) (5, 1.85742628574371337891e+00) (6, 1.61764883995056152344e+00) (0, 1.17332987487316131592e-01) (1, -3.94524782896041870117e-01) (2, 6.34709060192108154297e-01) (3, 1.60209432244300842285e-01) (4, -5.75751972198486328125e+00) (5, -1.45252868533134460449e-02) (6, 7.75365591049194335938e-01) (0, 1.86150312423706054688e-01) (1, 7.97645270824432373047e-01) (2, -1.44590067863464355469e+00) (3, -1.50912135839462280273e-01) (4, -1.05157721042633056641e+00) (5, 4.02846127748489379883e-01) (6, -2.81021565198898315430e-01) (0, -8.43786418437957763672e-01) (1, 4.39600467681884765625e-01) (2, 7.68037128448486328125e+00) (3, 3.06608390808105468750e+00) (4, -1.84267032146453857422e+00) (5, 5.37126123905181884766e-01) (6, 1.11660051345825195312e+00) (0, 9.12207067012786865234e-01) (1, -1.97766959667205810547e-01) (2, 1.19314558804035186768e-01) (3, -1.10174095630645751953e+00) (4, -2.19571143388748168945e-01) (5, 2.20018535852432250977e-01) (6, 1.10506474971771240234e-01) (0, 1.83756098151206970215e-01) (1, 6.99189066886901855469e-01) (2, -6.58546268939971923828e-01) (3, 1.42204654216766357422e+00) (4, 8.26632916927337646484e-01) (5, -3.21351885795593261719e-01) (6, 9.83909487724304199219e-01) (0, 8.93236637115478515625e-01) (1, -1.75444334745407104492e-01) (2, -4.40906018018722534180e-01) (3, -1.61383137106895446777e-01) (4, -5.28668344020843505859e-01) (5, 9.10954654216766357422e-01) (6, 1.54902398586273193359e-01) (0, 5.60750603675842285156e-01) (1, 3.19302678108215332031e-02) (2, -3.09070706367492675781e-01) (3, 7.34256446361541748047e-01) (4, -1.60552239418029785156e+00) (5, 7.43266999721527099609e-01) (6, 4.00624454021453857422e-01) (0, 8.00021111965179443359e-01) (1, 3.79205495119094848633e-01) (2, 3.36012214422225952148e-01) (3, 5.93125104904174804688e-01) (4, 8.44423055648803710938e-01) (5, 1.59842059016227722168e-01) (6, 3.18035185337066650391e-01) (0, -5.20068764686584472656e-01) (1, -9.41042676568031311035e-02) (2, -1.45907056331634521484e+00) (3, 6.74623966217041015625e-01) (4, 2.15286955237388610840e-01) (5, 5.55672824382781982422e-01) (6, 6.44394993782043457031e-01) (0, 3.49524688720703125000e+00) (1, -1.96683037281036376953e+00) (2, 1.02637398242950439453e+00) (3, -1.44709014892578125000e+00) (4, 1.14820384979248046875e+00) (5, 2.91038304567337036133e-01) (6, 1.22365677356719970703e+00) (0, 6.78816914558410644531e-01) (1, 1.65846660733222961426e-01) (2, 1.70188605785369873047e-01) (3, 7.46785104274749755859e-01) (4, -4.04445362091064453125e+00) (5, -4.88175079226493835449e-02) (6, -2.54687041044235229492e-01) (7, 1.68618246912956237793e-01) (8, 3.02411627769470214844e+00) (9, 2.83208799362182617188e+00) (10, 2.27888692170381546021e-02) (11, -1.13906890153884887695e-01) (12, -8.17998647689819335938e-01) (13, -1.22397756576538085938e+00) (14, 1.45659372210502624512e-01) (15, -6.92322671413421630859e-01) (16, -1.12970609664916992188e+01) (17, 2.06821963191032409668e-01) (18, 1.74299013614654541016e+00) (19, 9.35106563568115234375e+00) (20, 3.00753474235534667969e-01) (21, 3.42421263456344604492e-01) (22, 1.77046045660972595215e-01) (23, 6.07340894639492034912e-02) (24, 6.64404630661010742188e-01) (25, 7.50406360626220703125e+00) (26, 5.89671373367309570312e-01) (27, -2.01517149806022644043e-01) (28, 1.78538048267364501953e+00) (29, -3.30771803855895996094e-02) (30, 1.00564074516296386719e+00) (31, -4.26665544509887695312e+00) (32, 1.86901581287384033203e+00) (33, -8.50224316120147705078e-01) (34, 4.15628671646118164062e-01) (35, 2.43681609630584716797e-01) (36, 4.64838474988937377930e-01) (37, -1.53020918369293212891e-01) (38, 6.64225369691848754883e-02) (39, 7.92450964450836181641e-01) (7, -4.09993457794189453125e+00) (8, 4.43535387516021728516e-01) (9, -3.05469965934753417969e+00) (10, 3.12942028045654296875e+00) (11, 2.87724924087524414062e+00) (12, -1.36001157760620117188e+00) (13, 4.30502128601074218750e+00) (14, 8.85201632976531982422e-01) (15, -8.36681902408599853516e-01) (16, -2.26674747467041015625e+00) (17, 7.50105953216552734375e+00) (18, 7.76116311550140380859e-01) (19, 1.12105369567871093750e-01) (20, -2.91675567626953125000e+00) (21, 3.81859391927719116211e-01) (22, 2.19373273849487304688e+00) (23, 8.29804658889770507812e-01) (24, 2.80295282602310180664e-01) (25, 3.11322301626205444336e-01) (26, -3.00177121162414550781e+00) (27, -1.15627279281616210938e+01) (28, -1.96621274948120117188e+00) (29, 1.15486621856689453125e+01) (30, 2.94449353218078613281e+00) (31, 1.70816755294799804688e+00) (32, -1.84709608554840087891e+00) (33, 1.39965176582336425781e+00) (34, -4.55189085006713867188e+00) (35, 3.11815947294235229492e-01) (36, -3.56232213973999023438e+00) (37, -2.24196290969848632812e+00) (38, 1.13942182064056396484e+00) (39, -2.25270658731460571289e-01) (7, 3.86671990156173706055e-01) (8, 6.94827795028686523438e+00) (9, -1.16488885879516601562e+00) (10, 1.20565140247344970703e+00) (11, -5.92287969589233398438e+00) (12, -2.12578535079956054688e+00) (13, 4.42381829023361206055e-01) (14, -2.96490132808685302734e-01) (15, 1.67258173227310180664e-01) (16, 4.12096053361892700195e-01) (17, 1.19024859741330146790e-02) (18, 9.12432610988616943359e-01) (19, 4.28810045123100280762e-02) (20, 3.21155160665512084961e-01) (21, 5.78131914138793945312e-01) (22, 7.15216040611267089844e-01) (23, -1.24701976776123046875e-01) (24, -9.60303004831075668335e-03) (25, -2.00467593967914581299e-02) (26, 4.82042044401168823242e-01) (27, 6.14596577361226081848e-03) (28, 4.79693025350570678711e-01) (29, 4.88247454166412353516e-01) (30, -2.47778058052062988281e-01) (31, 1.72543048858642578125e-01) (32, -2.44434759020805358887e-01) (33, 3.11488342285156250000e+00) (34, 6.53679609298706054688e-01) (35, 1.09143364429473876953e+00) (36, 8.86023163795471191406e-01) (37, 8.77140760421752929688e-01) (38, 2.99690455198287963867e-01) (39, 5.98368108272552490234e-01) (7, -4.30593550205230712891e-01) (8, 3.97528618574142456055e-01) (9, 3.52592557668685913086e-01) (10, 5.31563237309455871582e-02) (11, 5.57298374176025390625e+00) (12, 1.56282290816307067871e-01) (13, 4.10158783197402954102e-01) (14, 1.11645960807800292969e+00) (15, 9.18168783187866210938e-01) (16, -3.62675189971923828125e-01) (17, 6.65178522467613220215e-04) (18, -3.23496535420417785645e-02) (19, -1.48394823074340820312e-01) (20, -6.44790112972259521484e-01) (21, 1.21017403900623321533e-01) (22, -4.01954591274261474609e-01) (23, 1.06470799446105957031e+00) (24, 2.38010239601135253906e+00) (25, 6.20151519775390625000e-01) (26, 1.84978246688842773438e+00) (27, -1.34033113718032836914e-01) (28, 1.79103982448577880859e+00) (29, 1.83196157217025756836e-01) (30, -2.87560820579528808594e-01) (31, 1.13540780544281005859e+00) (32, 1.12133491039276123047e+00) (33, 1.60612428188323974609e+00) (34, 9.33345794677734375000e-01) (35, 2.08833098411560058594e-01) (36, 7.29309096932411193848e-02) (37, -1.67434692382812500000e-01) (38, 1.36834335327148437500e+00) (39, 3.31008523702621459961e-01) 
