FANN_FLO_2.1
num_layers=3
learning_rate=0.700000
connection_rate=1.000000
network_type=0
learning_momentum=0.000000
training_algorithm=2
train_error_function=0
train_stop_function=0
cascade_output_change_fraction=0.010000
quickprop_decay=-0.000100
quickprop_mu=1.750000
rprop_increase_factor=1.200000
rprop_decrease_factor=0.500000
rprop_delta_min=0.000000
rprop_delta_max=50.000000
rprop_delta_zero=0.100000
cascade_output_stagnation_epochs=12
cascade_candidate_change_fraction=0.010000
cascade_candidate_stagnation_epochs=12
cascade_max_out_epochs=150
cascade_max_cand_epochs=150
cascade_num_candidate_groups=2
bit_fail_limit=3.49999994039535522461e-01
cascade_candidate_limit=1.00000000000000000000e+03
cascade_weight_multiplier=4.00000005960464477539e-01
cascade_activation_functions_count=10
cascade_activation_functions=3 5 7 8 10 11 14 15 16 17 
cascade_activation_steepnesses_count=4
cascade_activation_steepnesses=2.50000000000000000000e-01 5.00000000000000000000e-01 7.50000000000000000000e-01 1.00000000000000000000e+00 
layer_sizes=6 16 5 
scale_included=0
neurons (num_inputs, activation_function, activation_steepness)=(0, 0, 0.00000000000000000000e+00) (0, 0, 0.00000000000000000000e+00) (0, 0, 0.00000000000000000000e+00) (0, 0, 0.00000000000000000000e+00) (0, 0, 0.00000000000000000000e+00) (0, 0, 0.00000000000000000000e+00) (6, 5, 5.00000000000000000000e-01) (6, 5, 5.00000000000000000000e-01) (6, 5, 5.00000000000000000000e-01) (6, 5, 5.00000000000000000000e-01) (6, 5, 5.00000000000000000000e-01) (6, 5, 5.00000000000000000000e-01) (6, 5, 5.00000000000000000000e-01) (6, 5, 5.00000000000000000000e-01) (6, 5, 5.00000000000000000000e-01) (6, 5, 5.00000000000000000000e-01) (6, 5, 5.00000000000000000000e-01) (6, 5, 5.00000000000000000000e-01) (6, 5, 5.00000000000000000000e-01) (6, 5, 5.00000000000000000000e-01) (6, 5, 5.00000000000000000000e-01) (0, 5, 5.00000000000000000000e-01) (16, 5, 5.00000000000000000000e-01) (16, 5, 5.00000000000000000000e-01) (16, 5, 5.00000000000000000000e-01) (16, 5, 5.00000000000000000000e-01) (0, 5, 5.00000000000000000000e-01) 
connections (connected_to_neuron, weight)=(0, -8.28314185142517089844e-01) (1, 7.25783526897430419922e-01) (2, 2.82596564292907714844e+00) (3, 5.09612607955932617188e+00) (4, 1.67777752876281738281e+00) (5, 5.93708038330078125000e-01) (0, -9.81934607028961181641e-01) (1, -4.98735964298248291016e-01) (2, 2.64185309410095214844e+00) (3, -1.39493256807327270508e-01) (4, 3.19829010963439941406e+00) (5, -2.32626914978027343750e+00) (0, -6.51836022734642028809e-02) (1, 1.73556053638458251953e+00) (2, -1.25220203399658203125e+00) (3, 2.70678400993347167969e-01) (4, 4.43425565958023071289e-01) (5, 1.74156832695007324219e+00) (0, 4.47533941268920898438e+00) (1, 1.25415098667144775391e+00) (2, -6.82210743427276611328e-01) (3, 1.31269633769989013672e+00) (4, 2.72520035505294799805e-01) (5, -2.44400405883789062500e+00) (0, 3.61510738730430603027e-02) (1, 1.15889537334442138672e+00) (2, 2.40706372261047363281e+00) (3, -1.33889400959014892578e+00) (4, -7.53356888890266418457e-02) (5, -1.35774409770965576172e+00) (0, 2.67083674669265747070e-01) (1, 4.98181395232677459717e-02) (2, 1.44076749682426452637e-01) (3, 1.05893921852111816406e+00) (4, 6.42205357551574707031e-01) (5, 5.58285295963287353516e-01) (0, 6.66284501552581787109e-01) (1, -1.62959814071655273438e-01) (2, -2.82950788736343383789e-01) (3, -9.69522967934608459473e-02) (4, -1.85705077648162841797e+00) (5, 3.84782142937183380127e-02) (0, 3.08367991447448730469e+00) (1, 1.61842417716979980469e+00) (2, -4.28794050216674804688e+00) (3, 3.37966990470886230469e+00) (4, 6.54350697994232177734e-01) (5, -2.56099730730056762695e-01) (0, 1.76005477905273437500e+01) (1, 2.68099517822265625000e+01) (2, -3.51251029968261718750e+01) (3, -2.29657149314880371094e+00) (4, 1.62652802467346191406e+00) (5, -3.90116477012634277344e+00) (0, 1.07889986038208007812e+00) (1, 1.58468171954154968262e-01) (2, 1.49819915771484375000e+02) (3, 2.38920998573303222656e+00) (4, 4.40317630767822265625e-01) (5, 3.80006742477416992188e+00) (0, 1.32336540222167968750e+01) (1, 8.00909578800201416016e-01) (2, -3.45398235321044921875e+00) (3, -1.96567460894584655762e-01) (4, -1.05181789398193359375e+01) (5, -7.49608564376831054688e+00) (0, -6.21912717819213867188e-01) (1, -3.79826640710234642029e-03) (2, 8.81105482578277587891e-01) (3, 1.63935172557830810547e+00) (4, -7.77251601219177246094e-01) (5, 1.56605887413024902344e+00) (0, 2.61579126119613647461e-01) (1, 4.57124114036560058594e-01) (2, 1.09696483612060546875e+00) (3, -2.09145903587341308594e+00) (4, 8.54766130447387695312e-01) (5, -5.62707066535949707031e-01) (0, -8.63541960716247558594e-01) (1, -7.73258149623870849609e-01) (2, 3.20464587211608886719e+00) (3, 4.09588158130645751953e-01) (4, 3.24720311164855957031e+00) (5, 2.64496684074401855469e-01) (0, -3.15906620025634765625e+00) (1, -4.89480495452880859375e+00) (2, 1.73165893554687500000e+01) (3, 3.52915227413177490234e-01) (4, 4.41291761398315429688e+00) (5, 7.15286731719970703125e+00) (6, 1.15264821052551269531e+00) (7, -9.78735446929931640625e-01) (8, 2.21799993515014648438e+00) (9, 8.84831994771957397461e-02) (10, 2.14436337351799011230e-01) (11, 1.57583837509155273438e+01) (12, 1.25328767299652099609e+00) (13, 5.55863714218139648438e+00) (14, -1.31695401668548583984e+00) (15, 1.54484525322914123535e-01) (16, 1.65561640262603759766e+00) (17, 9.76505470275878906250e+00) (18, -9.41405200958251953125e+00) (19, 1.99244534969329833984e+00) (20, 1.45732212066650390625e+00) (21, 1.18032002449035644531e+00) (6, -1.63564128875732421875e+01) (7, 7.44506454467773437500e+00) (8, -2.64441251754760742188e-01) (9, 5.12902021408081054688e-01) (10, 7.83443069458007812500e+00) (11, 1.28822069168090820312e+01) (12, -7.31471255421638488770e-02) (13, 9.79437768459320068359e-01) (14, -5.69230437278747558594e-01) (15, 5.94206142425537109375e+00) (16, 1.46471347808837890625e+01) (17, 1.36950759887695312500e+01) (18, 3.07222151756286621094e+00) (19, -2.13946056365966796875e+00) (20, -1.57435417175292968750e+00) (21, 2.90878868103027343750e+00) (6, 5.26762269437313079834e-02) (7, 3.22480767965316772461e-01) (8, -6.78022718429565429688e+00) (9, 3.45613807439804077148e-01) (10, -1.18391418457031250000e+00) (11, 6.74717664718627929688e-01) (12, 4.99358251690864562988e-02) (13, 8.53036493062973022461e-02) (14, -3.11397939920425415039e-01) (15, -1.00979125127196311951e-02) (16, -3.00963878631591796875e-01) (17, 5.12650907039642333984e-01) (18, 4.68391358852386474609e-01) (19, 6.36687397956848144531e-01) (20, 2.29378485679626464844e+00) (21, -2.82663851976394653320e-01) (6, 1.64004173129796981812e-02) (7, 8.38528931140899658203e-01) (8, 9.20439481735229492188e-01) (9, 2.25675082206726074219e+00) (10, -6.56147956848144531250e-01) (11, 1.49917817115783691406e+00) (12, 5.58316326141357421875e+00) (13, -2.42833837866783142090e-01) (14, 5.51465511322021484375e-01) (15, -1.21911549940705299377e-02) (16, -1.91121041774749755859e+00) (17, 2.74679154157638549805e-01) (18, 1.12383306026458740234e+00) (19, 4.56884533166885375977e-01) (20, 2.83334314823150634766e-01) (21, -4.22625631093978881836e-01) 
