FANN_FLO_2.1
num_layers=3
learning_rate=0.400000
connection_rate=1.000000
network_type=0
learning_momentum=0.000000
training_algorithm=2
train_error_function=0
train_stop_function=0
cascade_output_change_fraction=0.010000
quickprop_decay=-0.000100
quickprop_mu=1.750000
rprop_increase_factor=1.200000
rprop_decrease_factor=0.500000
rprop_delta_min=0.000000
rprop_delta_max=50.000000
rprop_delta_zero=0.100000
cascade_output_stagnation_epochs=12
cascade_candidate_change_fraction=0.010000
cascade_candidate_stagnation_epochs=12
cascade_max_out_epochs=150
cascade_max_cand_epochs=150
cascade_num_candidate_groups=2
bit_fail_limit=3.49999994039535522461e-01
cascade_candidate_limit=1.00000000000000000000e+03
cascade_weight_multiplier=4.00000005960464477539e-01
cascade_activation_functions_count=10
cascade_activation_functions=3 5 7 8 10 11 14 15 16 17 
cascade_activation_steepnesses_count=4
cascade_activation_steepnesses=2.50000000000000000000e-01 5.00000000000000000000e-01 7.50000000000000000000e-01 1.00000000000000000000e+00 
layer_sizes=7 21 5 
scale_included=0
neurons (num_inputs, activation_function, activation_steepness)=(0, 0, 0.00000000000000000000e+00) (0, 0, 0.00000000000000000000e+00) (0, 0, 0.00000000000000000000e+00) (0, 0, 0.00000000000000000000e+00) (0, 0, 0.00000000000000000000e+00) (0, 0, 0.00000000000000000000e+00) (0, 0, 0.00000000000000000000e+00) (7, 5, 4.00000005960464477539e-01) (7, 5, 4.00000005960464477539e-01) (7, 5, 4.00000005960464477539e-01) (7, 5, 4.00000005960464477539e-01) (7, 5, 4.00000005960464477539e-01) (7, 5, 4.00000005960464477539e-01) (7, 5, 4.00000005960464477539e-01) (7, 5, 4.00000005960464477539e-01) (7, 5, 4.00000005960464477539e-01) (7, 5, 4.00000005960464477539e-01) (7, 5, 4.00000005960464477539e-01) (7, 5, 4.00000005960464477539e-01) (7, 5, 4.00000005960464477539e-01) (7, 5, 4.00000005960464477539e-01) (7, 5, 4.00000005960464477539e-01) (7, 5, 4.00000005960464477539e-01) (7, 5, 4.00000005960464477539e-01) (7, 5, 4.00000005960464477539e-01) (7, 5, 4.00000005960464477539e-01) (7, 5, 4.00000005960464477539e-01) (0, 5, 4.00000005960464477539e-01) (21, 5, 5.00000000000000000000e-01) (21, 5, 5.00000000000000000000e-01) (21, 5, 5.00000000000000000000e-01) (21, 5, 5.00000000000000000000e-01) (0, 5, 5.00000000000000000000e-01) 
connections (connected_to_neuron, weight)=(0, 1.42209255695343017578e+00) (1, 2.83812955021858215332e-02) (2, -4.00056689977645874023e-01) (3, -2.83609896898269653320e-01) (4, -1.70076572895050048828e+00) (5, 1.08766329288482666016e+00) (6, 3.44816565513610839844e-01) (0, -3.77968454360961914062e+00) (1, 1.12061254680156707764e-01) (2, -3.61886590719223022461e-01) (3, 5.22943019866943359375e+00) (4, 6.80266761779785156250e+00) (5, 3.69894325733184814453e-01) (6, 8.78228604793548583984e-01) (0, 2.12276983261108398438e+00) (1, -8.43970701098442077637e-02) (2, 2.50018030405044555664e-01) (3, -6.86477124691009521484e-01) (4, -1.94515299797058105469e+00) (5, -3.81389170885086059570e-01) (6, 8.74445021152496337891e-01) (0, 4.03205919265747070312e+00) (1, -2.78981328010559082031e-01) (2, 6.00227639079093933105e-02) (3, 3.49852949380874633789e-01) (4, -1.20048666000366210938e+00) (5, -2.92164925485849380493e-02) (6, 7.27121055126190185547e-01) (0, 2.55923151969909667969e+00) (1, 3.69259536266326904297e-01) (2, 1.92586302757263183594e-01) (3, 7.05103456974029541016e-01) (4, -7.53015697002410888672e-01) (5, 1.92296355962753295898e-01) (6, 7.22758412361145019531e-01) (0, -4.81204628944396972656e-01) (1, -1.32061708718538284302e-02) (2, -2.48517727851867675781e+00) (3, -1.97730016708374023438e+00) (4, 2.36613440513610839844e+00) (5, 3.63761663436889648438e+00) (6, -3.93318742513656616211e-01) (0, 6.18614077568054199219e-01) (1, 4.67598885297775268555e-01) (2, 5.57144701480865478516e-01) (3, -6.98493361473083496094e-01) (4, 1.29058675765991210938e+01) (5, -7.32348978519439697266e-01) (6, -1.02185475826263427734e+00) (0, 3.27554672956466674805e-01) (1, 7.00391352176666259766e-01) (2, 2.97866374254226684570e-01) (3, 9.44284319877624511719e-01) (4, 8.86599063873291015625e-01) (5, 4.60497260093688964844e-01) (6, 2.86857426166534423828e-01) (0, 7.08215057849884033203e-01) (1, 5.92727899551391601562e-01) (2, 2.34397068619728088379e-01) (3, 1.61210048198699951172e+00) (4, 9.64515805244445800781e-01) (5, 4.70411688089370727539e-01) (6, -1.38062104582786560059e-01) (0, 4.50413703918457031250e+00) (1, 1.70857504010200500488e-01) (2, 3.70859533548355102539e-01) (3, -3.45140838623046875000e+00) (4, -3.11184382438659667969e+00) (5, -4.71328973770141601562e-01) (6, -1.12717887386679649353e-02) (0, -4.58546698093414306641e-01) (1, -5.11311101913452148438e+00) (2, 3.51485786437988281250e+01) (3, 1.18716993331909179688e+01) (4, 2.62310934066772460938e+00) (5, -2.44147729873657226562e+00) (6, 2.42112278938293457031e+00) (0, -1.01753222942352294922e+00) (1, 1.03790678083896636963e-01) (2, -1.93681940436363220215e-01) (3, 4.12265396118164062500e+00) (4, 7.44052648544311523438e-01) (5, -5.17877519130706787109e-01) (6, 5.35770177841186523438e-01) (0, 2.51069903373718261719e-01) (1, -1.10367786884307861328e+00) (2, 7.40785717964172363281e-01) (3, 4.26944637298583984375e+00) (4, -1.39916121959686279297e-01) (5, 1.82084929943084716797e+00) (6, 2.60114282369613647461e-01) (0, -3.28435897827148437500e+00) (1, 4.34159898757934570312e+00) (2, 1.75125628709793090820e-01) (3, -2.45794653892517089844e+00) (4, -1.12245092391967773438e+01) (5, -3.41074657440185546875e+00) (6, -1.20387637615203857422e+00) (0, -1.91377449035644531250e+00) (1, -7.37665593624114990234e-01) (2, -4.24058496952056884766e-01) (3, 3.89514803886413574219e+00) (4, 1.04451255798339843750e+01) (5, 1.01941454410552978516e+00) (6, -1.73250764608383178711e-01) (0, -4.11969870328903198242e-01) (1, -4.65428739786148071289e-01) (2, -8.90891719609498977661e-03) (3, 1.48242712020874023438e+00) (4, -2.27908277511596679688e+00) (5, 5.10979473590850830078e-01) (6, 1.00251936912536621094e+00) (0, -4.51432913541793823242e-01) (1, 6.41206502914428710938e-01) (2, 9.46077778935432434082e-02) (3, -6.36192262172698974609e-01) (4, -6.73648118972778320312e+00) (5, 5.53206920623779296875e-01) (6, -1.56265163421630859375e+00) (0, 2.07177922129631042480e-01) (1, 3.06993931531906127930e-01) (2, 1.15006200969219207764e-01) (3, 4.24070030450820922852e-01) (4, -2.05094382166862487793e-01) (5, 1.19522488117218017578e+00) (6, -9.01792168617248535156e-01) (0, 1.24268853664398193359e+00) (1, -7.31750190258026123047e-01) (2, 2.12914299964904785156e+00) (3, -1.10482048988342285156e+00) (4, 4.39931638538837432861e-02) (5, 5.19542023539543151855e-03) (6, 1.29607701301574707031e+00) (0, -4.60935711860656738281e-01) (1, 3.57323884963989257812e-01) (2, 3.81775110960006713867e-01) (3, 5.47294092178344726562e+00) (4, -8.28702468425035476685e-03) (5, -4.78623777627944946289e-01) (6, 3.88104647397994995117e-01) (7, 3.91628116369247436523e-01) (8, 1.91847372055053710938e+00) (9, 5.21719551086425781250e+00) (10, 9.94537055492401123047e-01) (11, 3.80241441726684570312e+00) (12, -1.15626835823059082031e+00) (13, -5.51336050033569335938e-01) (14, -2.40053558349609375000e+00) (15, -3.17141473293304443359e-01) (16, -3.87488174438476562500e+00) (17, 3.88306021690368652344e-01) (18, 6.36333513259887695312e+00) (19, 2.42525148391723632812e+00) (20, 6.82976096868515014648e-02) (21, 7.46838033199310302734e-01) (22, 2.29363727569580078125e+00) (23, -3.39910417795181274414e-01) (24, -1.14134645462036132812e+00) (25, 2.00369864702224731445e-01) (26, 4.52208900451660156250e+00) (27, 1.09571802616119384766e+00) (7, -7.85799264907836914062e+00) (8, -2.19502806663513183594e+00) (9, 6.47315835952758789062e+00) (10, -7.31262981891632080078e-01) (11, -8.13035106658935546875e+00) (12, 1.18475794792175292969e+00) (13, 3.19671344757080078125e+00) (14, 3.49841892719268798828e-01) (15, 2.87003564834594726562e+00) (16, 2.89553999900817871094e+00) (17, 8.17890262603759765625e+00) (18, -4.93835687637329101562e+00) (19, 4.01056957244873046875e+00) (20, 6.07526540756225585938e-01) (21, -5.24564838409423828125e+00) (22, -4.01029549539089202881e-02) (23, 4.50289517641067504883e-01) (24, 2.76020717620849609375e+00) (25, -1.02205085754394531250e+01) (26, -1.05524826049804687500e+01) (27, -8.75919163227081298828e-01) (7, 2.07791233062744140625e+00) (8, -4.14825320243835449219e-01) (9, -3.96553605794906616211e-01) (10, -1.53341186046600341797e+00) (11, 4.81658607721328735352e-01) (12, 9.64828491210937500000e-01) (13, 3.30209881067276000977e-01) (14, 1.17218542098999023438e+00) (15, 8.62773895263671875000e-01) (16, -9.81864780187606811523e-02) (17, -2.98231784254312515259e-02) (18, -3.66879105567932128906e-01) (19, 1.85749486088752746582e-01) (20, -5.66016018390655517578e-01) (21, 1.82011947035789489746e-01) (22, 4.95668470859527587891e-01) (23, 1.03834855556488037109e+00) (24, 1.94181549549102783203e+00) (25, 3.49303394556045532227e-01) (26, -5.17819300293922424316e-02) (27, 2.57950931787490844727e-01) (7, 3.73791009187698364258e-01) (8, 5.12319207191467285156e-01) (9, 1.21966862678527832031e+00) (10, 2.15603923797607421875e+00) (11, 3.15254020690917968750e+00) (12, 2.46183037757873535156e-01) (13, -1.54103112220764160156e+00) (14, -7.50559791922569274902e-02) (15, 1.49800568819046020508e-01) (16, 7.02377438545227050781e-01) (17, -5.37135079503059387207e-02) (18, -2.48687162995338439941e-01) (19, 4.07403171062469482422e-01) (20, 7.86145806312561035156e-01) (21, -1.05528645217418670654e-02) (22, 4.53944206237792968750e-02) (23, 1.29480883479118347168e-01) (24, -3.01690459251403808594e+00) (25, 1.19978725910186767578e+00) (26, -3.74948717653751373291e-02) (27, 9.49120372533798217773e-02) 
