FANN_FLO_2.1
num_layers=3
learning_rate=0.700000
connection_rate=1.000000
network_type=0
learning_momentum=0.000000
training_algorithm=2
train_error_function=0
train_stop_function=0
cascade_output_change_fraction=0.010000
quickprop_decay=-0.000100
quickprop_mu=1.750000
rprop_increase_factor=1.200000
rprop_decrease_factor=0.500000
rprop_delta_min=0.000000
rprop_delta_max=50.000000
rprop_delta_zero=0.100000
cascade_output_stagnation_epochs=12
cascade_candidate_change_fraction=0.010000
cascade_candidate_stagnation_epochs=12
cascade_max_out_epochs=150
cascade_max_cand_epochs=150
cascade_num_candidate_groups=2
bit_fail_limit=3.49999994039535522461e-01
cascade_candidate_limit=1.00000000000000000000e+03
cascade_weight_multiplier=4.00000005960464477539e-01
cascade_activation_functions_count=10
cascade_activation_functions=3 5 7 8 10 11 14 15 16 17 
cascade_activation_steepnesses_count=4
cascade_activation_steepnesses=2.50000000000000000000e-01 5.00000000000000000000e-01 7.50000000000000000000e-01 1.00000000000000000000e+00 
layer_sizes=6 25 5 
scale_included=0
neurons (num_inputs, activation_function, activation_steepness)=(0, 0, 0.00000000000000000000e+00) (0, 0, 0.00000000000000000000e+00) (0, 0, 0.00000000000000000000e+00) (0, 0, 0.00000000000000000000e+00) (0, 0, 0.00000000000000000000e+00) (0, 0, 0.00000000000000000000e+00) (6, 5, 5.00000000000000000000e-01) (6, 5, 5.00000000000000000000e-01) (6, 5, 5.00000000000000000000e-01) (6, 5, 5.00000000000000000000e-01) (6, 5, 5.00000000000000000000e-01) (6, 5, 5.00000000000000000000e-01) (6, 5, 5.00000000000000000000e-01) (6, 5, 5.00000000000000000000e-01) (6, 5, 5.00000000000000000000e-01) (6, 5, 5.00000000000000000000e-01) (6, 5, 5.00000000000000000000e-01) (6, 5, 5.00000000000000000000e-01) (6, 5, 5.00000000000000000000e-01) (6, 5, 5.00000000000000000000e-01) (6, 5, 5.00000000000000000000e-01) (6, 5, 5.00000000000000000000e-01) (6, 5, 5.00000000000000000000e-01) (6, 5, 5.00000000000000000000e-01) (6, 5, 5.00000000000000000000e-01) (6, 5, 5.00000000000000000000e-01) (6, 5, 5.00000000000000000000e-01) (6, 5, 5.00000000000000000000e-01) (6, 5, 5.00000000000000000000e-01) (6, 5, 5.00000000000000000000e-01) (0, 5, 5.00000000000000000000e-01) (25, 5, 5.00000000000000000000e-01) (25, 5, 5.00000000000000000000e-01) (25, 5, 5.00000000000000000000e-01) (25, 5, 5.00000000000000000000e-01) (0, 5, 5.00000000000000000000e-01) 
connections (connected_to_neuron, weight)=(0, 2.27268654853105545044e-02) (1, 5.32356023788452148438e-01) (2, 4.91457246243953704834e-02) (3, 4.56943511962890625000e-01) (4, 5.22308707237243652344e-01) (5, 1.01285052299499511719e+00) (0, 1.56207047402858734131e-02) (1, 2.87917256355285644531e-01) (2, 2.00361156463623046875e+00) (3, -1.15584515035152435303e-01) (4, 1.12594735622406005859e+00) (5, 5.62557280063629150391e-02) (0, -1.07080556452274322510e-01) (1, 1.40676319599151611328e-01) (2, 4.10880073904991149902e-02) (3, 1.38627803325653076172e+00) (4, 1.30504101514816284180e-01) (5, 8.91489505767822265625e-01) (0, 2.55589365959167480469e+00) (1, 2.21730947494506835938e+00) (2, 9.53975009918212890625e+00) (3, 3.47437947988510131836e-01) (4, -2.33683633804321289062e+00) (5, 6.89844608306884765625e+00) (0, 2.12852880358695983887e-01) (1, 1.97901353240013122559e-01) (2, 6.45018517971038818359e-01) (3, 4.53203290700912475586e-01) (4, 4.73147124052047729492e-01) (5, 1.20112940669059753418e-01) (0, 1.71684294939041137695e-01) (1, 2.98560231924057006836e-01) (2, 1.19989621639251708984e+00) (3, 9.58250403404235839844e-01) (4, 4.81705695390701293945e-01) (5, 2.20570400357246398926e-01) (0, -4.24009114503860473633e-01) (1, 3.01946544647216796875e+00) (2, -1.40229499340057373047e+00) (3, 6.27963423728942871094e-01) (4, 1.42540976405143737793e-01) (5, 1.94239318370819091797e+00) (0, 9.07211720943450927734e-01) (1, 4.49002951383590698242e-01) (2, 4.73486185073852539062e-01) (3, -2.60024935007095336914e-01) (4, 6.05859339237213134766e-01) (5, -6.59462392330169677734e-01) (0, -9.60838913917541503906e-01) (1, 5.77686846256256103516e-01) (2, 3.14131855964660644531e-01) (3, 2.66144394874572753906e-01) (4, 1.02342951297760009766e+00) (5, 2.00892150402069091797e-01) (0, 2.59170174598693847656e-01) (1, 2.41234734654426574707e-01) (2, -9.97013986110687255859e-01) (3, 4.91051733493804931641e-01) (4, 5.34027934074401855469e-01) (5, 5.26612758636474609375e-01) (0, 1.46689331531524658203e+00) (1, -1.13602232933044433594e+00) (2, 1.17316865921020507812e+00) (3, -1.90316379070281982422e+00) (4, -1.42384660243988037109e+00) (5, -3.51310968399047851562e-01) (0, -1.64726877212524414062e+00) (1, 1.83419096469879150391e+00) (2, 5.94498991966247558594e-01) (3, -6.93134009838104248047e-01) (4, -1.68357431888580322266e+00) (5, -5.43176054954528808594e-01) (0, -2.33298107981681823730e-01) (1, -1.58933365345001220703e+00) (2, -2.16869282722473144531e+00) (3, 1.48389577865600585938e+00) (4, 7.13208377361297607422e-01) (5, 7.68760979175567626953e-01) (0, -9.63544785976409912109e-01) (1, 5.28171718120574951172e-01) (2, 3.61828714609146118164e-01) (3, -5.49855887889862060547e-01) (4, 3.92240434885025024414e-01) (5, -6.46909713745117187500e-01) (0, -5.10203897953033447266e-01) (1, 4.45573359727859497070e-01) (2, 2.30359592437744140625e+01) (3, 6.91830348968505859375e+00) (4, 4.13682907819747924805e-01) (5, 5.81679534912109375000e+00) (0, -5.60109972953796386719e-01) (1, 7.82404363155364990234e-01) (2, 1.58294528722763061523e-01) (3, -8.77060770988464355469e-01) (4, 2.80394172668457031250e+00) (5, -1.13018238544464111328e+00) (0, -3.99724692106246948242e-01) (1, 1.70614197850227355957e-01) (2, 3.32225859165191650391e-01) (3, 5.55263161659240722656e-01) (4, 3.97533267736434936523e-01) (5, 5.21768450736999511719e-01) (0, 4.22029316425323486328e-01) (1, 6.19070112705230712891e-01) (2, 1.71128141880035400391e+00) (3, -1.89386129379272460938e-01) (4, 1.44476592540740966797e+00) (5, -5.81846535205841064453e-01) (0, 9.31040048599243164062e-01) (1, 1.16210162639617919922e-01) (2, -4.61346477270126342773e-01) (3, 7.47389376163482666016e-01) (4, 2.91178464889526367188e-01) (5, 2.35086962580680847168e-01) (0, 2.36018776893615722656e-01) (1, 2.95312196016311645508e-01) (2, 2.33392611145973205566e-01) (3, -2.59990543127059936523e-01) (4, 6.65482997894287109375e-01) (5, 2.54115402698516845703e-01) (0, 1.58307939767837524414e-01) (1, 1.03596198558807373047e+00) (2, -1.13544575870037078857e-01) (3, 2.83626347780227661133e-01) (4, -1.26788154244422912598e-01) (5, 1.46430957317352294922e+00) (0, 2.76639997959136962891e-01) (1, -2.04896464943885803223e-01) (2, -2.93886601924896240234e-01) (3, 8.86060535907745361328e-01) (4, 2.20453441143035888672e-01) (5, 6.75332605838775634766e-01) (0, 7.72462710738182067871e-02) (1, 1.93078532814979553223e-01) (2, 7.80888319015502929688e-01) (3, 1.27227222919464111328e+00) (4, 1.82280763983726501465e-01) (5, 7.60038614273071289062e-01) (0, 4.76080268621444702148e-01) (1, 7.01226592063903808594e-01) (2, 1.25400090217590332031e+00) (3, -3.56956183910369873047e-01) (4, 6.46344721317291259766e-01) (5, -3.05707424879074096680e-01) (6, 1.57364940643310546875e+00) (7, -2.86118984222412109375e+00) (8, 2.06228961944580078125e+01) (9, -3.38778823614120483398e-01) (10, 1.49198800325393676758e-01) (11, -3.64844948053359985352e-02) (12, -1.13508343696594238281e+00) (13, -6.52304530143737792969e-01) (14, 1.60271179676055908203e+00) (15, -1.22909240424633026123e-01) (16, -4.38252061605453491211e-01) (17, 3.83472383022308349609e-01) (18, 9.96687650680541992188e-01) (19, -2.53049159049987792969e+00) (20, 5.41717708110809326172e-01) (21, -1.45319032669067382812e+00) (22, 2.62333941459655761719e+00) (23, -2.99635946750640869141e-01) (24, 1.65064775943756103516e+00) (25, 3.50864350795745849609e-01) (26, 8.21935176849365234375e-01) (27, 5.13072669506072998047e-01) (28, 6.61208772659301757812e+00) (29, -3.41735929250717163086e-01) (30, 7.42137372493743896484e-01) (6, -1.22841100692749023438e+01) (7, 5.76325356960296630859e-01) (8, -2.74955387115478515625e+01) (9, 1.45365321636199951172e+00) (10, -5.08974671363830566406e-01) (11, 1.43147635459899902344e+00) (12, 3.73510718345642089844e+00) (13, 1.74594044685363769531e+00) (14, -4.82700347900390625000e+00) (15, 3.35986584424972534180e-01) (16, 9.94189500808715820312e-01) (17, -4.04722183942794799805e-01) (18, -1.87649562954902648926e-01) (19, 4.40129709243774414062e+00) (20, 8.57488059997558593750e+00) (21, 3.31001925468444824219e+00) (22, -2.39394649863243103027e-01) (23, 7.30173945426940917969e-01) (24, 1.06390103697776794434e-01) (25, 2.93121486902236938477e-01) (26, -6.64412069320678710938e+00) (27, 1.70048320293426513672e+00) (28, -1.39850687980651855469e+00) (29, 1.59929859638214111328e+00) (30, -1.08559179306030273438e+00) (6, -1.14883923530578613281e+00) (7, 1.05284917354583740234e+00) (8, 4.56919252872467041016e-01) (9, 1.63650059700012207031e+00) (10, 2.21963429450988769531e+00) (11, 6.08622074127197265625e-01) (12, -3.44291257858276367188e+00) (13, 1.05028890073299407959e-01) (14, 8.57869565486907958984e-01) (15, -5.61271786689758300781e-01) (16, 5.00097453594207763672e-01) (17, -3.28191220760345458984e-01) (18, 6.88234150409698486328e-01) (19, 3.63335549831390380859e-01) (20, 2.20593926496803760529e-03) (21, -1.55850639566779136658e-02) (22, 9.46153253316879272461e-02) (23, -1.58274218440055847168e-01) (24, -3.01514416933059692383e-01) (25, -3.64484429359436035156e+00) (26, -1.21509766578674316406e+00) (27, -6.39844179153442382812e-01) (28, 5.92856585979461669922e-01) (29, -5.35757169127464294434e-02) (30, 3.10436606407165527344e-01) (6, -2.53126412630081176758e-01) (7, 6.90283477306365966797e-01) (8, 2.12549641728401184082e-01) (9, 4.67436879873275756836e-01) (10, 3.98046821355819702148e-01) (11, 9.25944671034812927246e-02) (12, 9.21674743294715881348e-02) (13, 5.66955447196960449219e-01) (14, -4.15067672729492187500e+00) (15, 4.80634748935699462891e-01) (16, 8.61620128154754638672e-01) (17, 1.61139798164367675781e+00) (18, 4.23253118991851806641e-01) (19, 5.53386509418487548828e-02) (20, -3.21243591606616973877e-02) (21, 6.03151142597198486328e-01) (22, -3.84904891252517700195e-02) (23, 3.03013294935226440430e-01) (24, 2.00576162338256835938e+00) (25, -2.35985875129699707031e+00) (26, 3.60582828521728515625e-01) (27, 8.74267816543579101562e-01) (28, 1.80207252502441406250e-01) (29, 1.58916398882865905762e-01) (30, 2.26428881287574768066e-01) 
