FANN_FLO_2.1
num_layers=3
learning_rate=0.100000
connection_rate=1.000000
network_type=0
learning_momentum=0.000000
training_algorithm=2
train_error_function=0
train_stop_function=0
cascade_output_change_fraction=0.010000
quickprop_decay=-0.000100
quickprop_mu=1.750000
rprop_increase_factor=1.200000
rprop_decrease_factor=0.500000
rprop_delta_min=0.000000
rprop_delta_max=50.000000
rprop_delta_zero=0.100000
cascade_output_stagnation_epochs=12
cascade_candidate_change_fraction=0.010000
cascade_candidate_stagnation_epochs=12
cascade_max_out_epochs=150
cascade_max_cand_epochs=150
cascade_num_candidate_groups=2
bit_fail_limit=3.49999994039535522461e-01
cascade_candidate_limit=1.00000000000000000000e+03
cascade_weight_multiplier=4.00000005960464477539e-01
cascade_activation_functions_count=10
cascade_activation_functions=3 5 7 8 10 11 14 15 16 17 
cascade_activation_steepnesses_count=4
cascade_activation_steepnesses=2.50000000000000000000e-01 5.00000000000000000000e-01 7.50000000000000000000e-01 1.00000000000000000000e+00 
layer_sizes=6 4 4 
scale_included=0
neurons (num_inputs, activation_function, activation_steepness)=(0, 0, 0.00000000000000000000e+00) (0, 0, 0.00000000000000000000e+00) (0, 0, 0.00000000000000000000e+00) (0, 0, 0.00000000000000000000e+00) (0, 0, 0.00000000000000000000e+00) (0, 0, 0.00000000000000000000e+00) (6, 5, 5.00000000000000000000e-01) (6, 5, 5.00000000000000000000e-01) (6, 5, 5.00000000000000000000e-01) (0, 5, 5.00000000000000000000e-01) (4, 5, 5.00000000000000000000e-01) (4, 5, 5.00000000000000000000e-01) (4, 5, 5.00000000000000000000e-01) (0, 5, 5.00000000000000000000e-01) 
connections (connected_to_neuron, weight)=(0, 9.12917032837867736816e-02) (1, -1.51020705699920654297e-01) (2, 5.81325478851795196533e-02) (3, -4.79041459038853645325e-03) (4, -9.54020082950592041016e-01) (5, -6.78318917751312255859e-01) (0, -7.39953756332397460938e-01) (1, -1.28160938620567321777e-01) (2, 1.17899850010871887207e-02) (3, 1.41523620113730430603e-02) (4, -3.34400497376918792725e-02) (5, 7.51707911491394042969e-01) (0, 5.02265334129333496094e-01) (1, 1.53874874114990234375e+00) (2, 1.40047369003295898438e+01) (3, -1.06349848210811614990e-01) (4, 7.90045213699340820312e+00) (5, 4.21498918533325195312e+00) (6, -5.61175041198730468750e+01) (7, -1.21529846191406250000e+01) (8, 6.01792596280574798584e-02) (9, 1.14315080642700195312e+00) (6, 6.52926483154296875000e+01) (7, 1.62444820404052734375e+01) (8, 1.09915876388549804688e+01) (9, -8.60129165649414062500e+00) (6, 4.27217543125152587891e-01) (7, -9.44665908813476562500e+00) (8, -1.49945579469203948975e-02) (9, 2.94558072090148925781e+00) 
